{"weights": [[[-0.005624048411846161, -0.01942753791809082, 0.08363877981901169, -0.052549809217453, -0.053026724606752396, -0.04978366941213608, 0.06849361211061478, 0.022864297032356262, -0.04830123856663704, -0.062070686370134354, -0.008645281195640564, -0.034010149538517, -0.2442803829908371, -0.3288201093673706, 0.10550405830144882, 0.023702077567577362, 0.03330802917480469, -0.06167929247021675, 0.0181194469332695, 0.06749065965414047, 0.032790035009384155, -0.07109770178794861, -0.010557033121585846, 0.004189088940620422, 0.04186398535966873, 0.02045939862728119, 0.005208522081375122, -0.047756120562553406, 0.08482209593057632, -0.04325859993696213, 0.02999020367860794, 0.042837776243686676, 0.02162948250770569, 0.049607254564762115, 0.19282592833042145, 0.024194346740841866, -0.6112332344055176, -0.47130975127220154, -0.17889957129955292, -0.27898359298706055, -0.3365558087825775, -0.3468555212020874, 0.05455135554075241, 0.12531740963459015, 0.24216043949127197, 0.07963636517524719, 0.08478549867868423, -0.059187546372413635, 0.0022897948510944843, 0.047540344297885895, 0.07004499435424805, 0.06235587224364281, 0.0642363652586937, -0.04841072857379913, 0.033601172268390656, 0.06196180731058121, -0.02004237473011017, 0.06711166352033615, 0.08643758296966553, -0.08422411233186722, -0.12020658701658249, -0.021939324215054512, 0.00217949110083282, -0.6021274328231812, 0.14161425828933716, 0.8548218607902527, 0.9738577604293823, 0.9186833500862122, 0.5589570999145508, -0.33214041590690613, -0.45127540826797485, -0.45747220516204834, -0.29927000403404236, 0.5869265794754028, 0.6885019540786743, 0.6439526081085205, 0.5959212779998779, -0.49511075019836426, -0.11565948277711868, 0.18194538354873657, 0.06704768538475037, 0.23431015014648438, -0.009632416069507599, -0.06409239768981934, 0.0433991476893425, -0.014291658997535706, 0.02284216694533825, -0.229629784822464, 0.47033926844596863, -0.044450972229242325, 0.3952581584453583, 0.5480488538742065, 0.6702714562416077, 0.3213975727558136, 0.23631083965301514, 0.29692721366882324, 0.34297263622283936, -0.10045719891786575, -0.6777896285057068, -0.5948869585990906, -0.5046945214271545, 0.3053811490535736, 0.5499532222747803, 0.22692999243736267, 0.22335492074489594, 0.23848998546600342, -0.02734988182783127, -0.6245177984237671, -0.33242321014404297, -0.41949397325515747, 0.0386224165558815, -0.002458140254020691, 0.08533673733472824, 0.19630394876003265, 0.14068195223808289, -0.21579977869987488, 0.016468891873955727, 0.2913002073764801, 0.38343730568885803, 0.5185919404029846, 0.6468293070793152, 0.1065065786242485, 0.20595982670783997, 0.20122335851192474, -0.211232528090477, -0.41455787420272827, -0.33262819051742554, -0.24936839938163757, -0.4107770323753357, -0.38542672991752625, 0.2401295304298401, 0.14996680617332458, -0.3620450794696808, -0.024379070848226547, 0.1701216846704483, -0.2946464717388153, 0.29441288113594055, 0.29463207721710205, 0.6585801839828491, -0.20810869336128235, -0.03227214142680168, -0.07078144699335098, 0.14575068652629852, -0.051304709166288376, 0.6462072134017944, 0.7489941716194153, 0.2579188048839569, 0.11137367784976959, 0.34806883335113525, 0.10014275461435318, 0.211579367518425, -0.11346845328807831, -0.2732613682746887, -0.11680808663368225, -0.18846148252487183, -0.19830060005187988, -0.026252930983901024, 0.060471273958683014, 0.1261039674282074, -0.10420114547014236, 0.22975507378578186, -0.10363339632749557, 0.03545491769909859, 0.1096576601266861, 0.31826913356781006, 0.2915686070919037, 0.33416548371315, -0.5956522822380066, 0.042750321328639984, 0.4227644205093384, -0.1892981231212616, 0.8025805354118347, 0.38164374232292175, 0.4988323152065277, -0.045397184789180756, -0.18147936463356018, 0.13363862037658691, 0.06958739459514618, 0.18120451271533966, 0.042694091796875, -0.02079046331346035, 0.28483662009239197, 0.14488081634044647, 0.09562975913286209, 0.05306407809257507, -0.25641930103302, 0.08737994730472565, 0.005575076676905155, 0.03592311590909958, 0.0034362890291959047, 0.16414706408977509, 0.2364477664232254, 0.24652528762817383, 0.5297505259513855, 0.1604679524898529, 0.1079774722456932, -0.22021877765655518, 0.43739354610443115, -0.15870441496372223, 0.6530855894088745, 0.07534699887037277, -0.09964412450790405, 0.07647600769996643, -0.08996343612670898, 0.026594743132591248, 0.17466098070144653, -0.07753979414701462, 0.1178642138838768, 0.017333010211586952, -0.03136837109923363, 0.026960741728544235, -0.373370498418808, -0.20075605809688568, -0.20328013598918915, -0.0945221334695816, -0.08842965960502625, 0.1762664020061493, 0.24627836048603058, -0.055722352117300034, 0.02281137742102146, 0.14794719219207764, 0.07466158270835876, 0.9792374968528748, 0.3565492331981659, -0.3349224925041199, -0.30052345991134644, 0.24489767849445343, 0.37604430317878723, 0.10949552804231644, -0.23794281482696533, -0.16455939412117004, -0.17311714589595795, 0.1079535037279129, 0.11169549077749252, 0.1086193397641182, -0.10219141840934753, 0.08570651710033417, -0.06218378618359566, 0.07554151862859726, -0.2545434236526489, 0.06074385344982147, -0.10217496007680893, 0.016735583543777466, 0.008718490600585938, 0.010136310942471027, -0.15684790909290314, 0.026839954778552055, -0.1900818943977356, -0.19986484944820404, -0.06994827836751938, 0.4482359290122986, 0.008727049455046654, -0.29191744327545166, -0.5526501536369324, 0.3072225749492645, 0.037883978337049484, 0.2541380822658539, -0.126082643866539, 0.19151127338409424, 0.06833664327859879, 0.035635173320770264, 0.3315187096595764, -0.11563044786453247, 0.0881085991859436, -0.0029065574053674936, 0.12645117938518524, 0.1375444531440735, 0.031135981902480125, -0.21689417958259583, 0.007478431798517704, -0.005673202686011791, 0.28206759691238403, -0.0907243862748146, -0.10254912078380585, 0.12735651433467865, 0.40180838108062744, -0.16185978055000305, 0.7501640319824219, -0.1584947258234024, -0.44625502824783325, -0.1773923933506012, -0.8287142515182495, 0.3892535865306854, 0.4311208128929138, 0.26050519943237305, 0.19685354828834534, 0.25325077772140503, 0.14130622148513794, 0.3073776662349701, -0.025685783475637436, -0.2081630825996399, -0.037830401211977005, -0.433962345123291, 0.05397197976708412, -0.250747412443161, -0.4557822048664093, -0.18234099447727203, 0.023655209690332413, 0.0213742945343256, 0.12031880766153336, 0.21348917484283447, 0.38376450538635254, 0.6429005265235901, 0.0867781937122345, -0.20027759671211243, 0.2953841984272003, 0.2477865368127823, 0.11871319264173508, -0.5321992039680481, -0.733512282371521, 0.13505077362060547, 0.09119188785552979, 0.3519277572631836, 0.2915644943714142, 0.28415122628211975, -0.3643002510070801, -0.4305391013622284, -0.9473806619644165, -0.735665500164032, -0.26551583409309387, -0.25833871960639954, -0.1696445643901825, -0.489451140165329, -0.3759271800518036, -0.18285784125328064, -0.11233292520046234, -0.17150013148784637, -0.4513903856277466, -0.21159157156944275, 0.047152113169431686, -0.1949831247329712, -0.7987801432609558, -0.8024159669876099, -0.3021416962146759, 0.7012248635292053, -0.20631417632102966, -0.32348427176475525, -0.29997745156288147, -0.4229311943054199, -0.266535222530365, -0.2033144235610962, -0.15685434639453888, -0.37742093205451965, -0.1646416038274765, -0.4059530794620514, -0.17965014278888702, 0.08584156632423401, 0.1619502753019333, 0.13614416122436523, -0.00857420451939106, 0.18960866332054138, -0.16375069320201874, -0.12334364652633667, -0.1881929188966751, -0.03865658864378929, -0.5068001747131348, -0.5681605339050293, -0.6022233963012695, -0.941676914691925, -0.9558272957801819, -0.943570077419281, -0.09318643063306808, -0.01593848131597042, -0.3087228834629059, -0.04948512837290764, -0.30497509241104126, -0.11908426135778427, 0.2627764940261841, -0.12801986932754517, 0.0752105563879013, -0.34940385818481445, 0.0005975553649477661, -0.14417873322963715, -0.055907733738422394, 0.11055725812911987, 0.21960076689720154, 0.34824034571647644, 0.4610731899738312, 0.3482277989387512, -0.1267271339893341, -0.20473864674568176, -0.03734392672777176, 0.15452957153320312, -0.03876693546772003, -0.3017385005950928, -0.3872990608215332, -1.2803881168365479, -0.970147430896759, -1.1708002090454102, -0.2249659150838852, 0.5173693895339966, -0.36758142709732056, -0.11902822554111481, -0.1632295846939087, 0.09775185585021973, -0.08866504579782486, 0.006585235707461834, -0.2186868041753769, -0.02194966748356819, 0.11655120551586151, -0.008228053338825703, -0.1696474850177765, -0.05764423683285713, 0.18434560298919678, 0.2752613127231598, 0.21210236847400665, 0.189809188246727, -0.003238811157643795, -0.2265433967113495, -0.0378117598593235, 0.1140543594956398, -0.034943290054798126, -0.03834431245923042, 0.026923339813947678, -0.4101850688457489, 0.007001396734267473, 0.04620799794793129, 0.21783824265003204, 0.6125362515449524, -0.4448670744895935, -0.3609144985675812, 0.3489965498447418, -0.10222285240888596, 0.13873626291751862, -0.33634844422340393, -0.034624192863702774, -0.22475285828113556, 0.06792860478162766, 0.50501549243927, 0.5336817502975464, 0.5455712676048279, 0.25359800457954407, 0.2143872231245041, 0.17488723993301392, 0.1338215470314026, 0.1049528494477272, -0.18255753815174103, 0.06880996376276016, -0.09719264507293701, -0.20564089715480804, 0.059041716158390045, 0.28600436449050903, -0.05284855142235756, 0.6258534789085388, 0.334565669298172, 0.3998955190181732, 0.5092588067054749, 0.2003452181816101, -0.20930065214633942, 0.40160486102104187, 0.4099278748035431, 0.510920524597168, -0.30745282769203186, -0.5134329199790955, -0.3797290623188019, 0.026775013655424118, 0.24214120209217072, 0.44086137413978577, 0.44511449337005615, 0.5208046436309814, 0.6016112565994263, 0.5320513248443604, 0.04299742355942726, -0.1256415992975235, -0.23567961156368256, -0.11594156920909882, 0.052659422159194946, 0.024875618517398834, -0.2653105556964874, 0.22605277597904205, 0.27245691418647766, 0.34837621450424194, 0.5048937201499939, -0.2831803262233734, 0.36919406056404114, 0.26460400223731995, 0.05333348363637924, 0.12193762511014938, 0.4082925319671631, -0.1692318618297577, -1.1099179983139038, -0.8698759078979492, -0.8358228206634521, -0.4452888071537018, -0.8418655395507812, -0.5971114039421082, -0.2402099072933197, 0.014003491960465908, 0.01991354115307331, -0.15803425014019012, -0.11315414309501648, 0.08685421943664551, -0.24395248293876648, 0.022468967363238335, 0.13040457665920258, 0.3834889233112335, -0.18855831027030945, 0.011583584360778332, 0.5065671801567078, 0.012858266942203045, -0.21113401651382446, -0.21795493364334106, -0.4004864990711212, 0.10667602717876434, 0.35044288635253906, 0.10226495563983917, 1.1042144298553467, 0.22236645221710205, -0.4546244442462921, -1.0761133432388306, -0.9149051904678345, -1.2823200225830078, -1.6521230936050415, -1.9401172399520874, -1.7926687002182007, -1.706022024154663, -1.5496526956558228, -1.54539155960083, -0.8272049427032471, -0.3084962069988251, 0.34448671340942383, 0.3856087625026703, 0.1602315455675125, 0.41508734226226807, 0.3118159770965576, 0.6184262037277222, 0.636986255645752, 0.2757646143436432, 0.06462934613227844, -0.003057453315705061, -0.5176547765731812, -0.26844704151153564, -0.13332974910736084, 0.5006736516952515, 0.5610107183456421, 0.13202022016048431, -0.2957092523574829, -0.6616167426109314, -0.7509791254997253, -1.2186199426651, -1.7210209369659424, -1.942600965499878, -2.3050103187561035, -2.063760757446289, -1.7343716621398926, -1.1334165334701538, -0.899237871170044, -0.17477086186408997, 0.3277195692062378, 0.4665037989616394, 0.1894562989473343, 0.25136035680770874, 0.14771968126296997, 0.3646061420440674, 0.13406595587730408, 0.015807056799530983, -0.009687441401183605, 0.3741147220134735, -0.3221368193626404, 0.109775111079216, 0.054381974041461945, 0.3092176914215088, 0.40289631485939026, 0.8220292925834656, -0.05109335854649544, -0.8317081332206726, 0.048626285046339035, -0.7972351312637329, -0.8055946826934814, -0.3043505549430847, -0.5257475972175598, -0.8211448788642883, -0.818982720375061, -0.7180224657058716, -0.5257234573364258, -0.15970218181610107, -0.09687184542417526, 0.13701865077018738, 0.3651525378227234, 0.26273036003112793, 0.28104302287101746, -0.13742175698280334, 0.1657557189464569, 0.6506367325782776, 0.10120052099227905, -0.2648624777793884, -0.05565989762544632, 0.14300920069217682, -0.10549852252006531, 0.5468814969062805, 0.8535464406013489, 0.8940292596817017, 0.3279567360877991, -0.26820045709609985, -0.1502639353275299, -0.038266509771347046, -0.39154887199401855, -0.005221249535679817, 0.1013275533914566, 0.09950761497020721, 0.26001736521720886, -0.06142786517739296, -0.10662730783224106, -0.08914383500814438, -0.033338405191898346, -0.19853371381759644, 0.126798614859581, 0.1432800441980362, -0.025843944400548935, -0.48171526193618774, -0.19105279445648193, 0.49248114228248596, -0.24728667736053467, 0.08957306295633316, -0.26296988129615784, -0.024709736928343773, -0.09784071892499924, -0.01590830460190773, 0.4700620472431183, 0.349453330039978, 0.4125918447971344, 0.4483279287815094, 0.412543922662735, 0.011828787624835968, 0.2764723002910614, 0.39126741886138916, 0.40002819895744324, 0.4237566888332367, 0.22716304659843445, -0.25071215629577637, -0.07024690508842468, -0.027387088164687157, -0.4276292026042938, -0.39566341042518616, -0.16052943468093872, -0.029669487848877907, 0.24360975623130798, 0.15925626456737518, -0.03422512114048004, 0.4228914678096771, -0.044035013765096664, 0.47674527764320374, -0.3122537136077881, 0.005059218965470791, 0.040018998086452484, 0.05543442815542221, 0.769679069519043, 0.6637877821922302, 0.60470050573349, 0.8501614928245544, 0.6250755190849304, 0.8247478008270264, 0.6256231069564819, 0.5369084477424622, 0.5246903896331787, 0.47546082735061646, 0.21058078110218048, 0.08527965843677521, 0.09492965787649155, -0.10218733549118042, -0.2447778582572937, -0.13397225737571716, 0.00020765243971254677, -0.09199848771095276, 0.20870277285575867, 0.34341830015182495, -0.16604650020599365, 0.43769702315330505, 0.4498933255672455, 0.6463667154312134, -0.03188290074467659, 0.01700560748577118, -0.06627598404884338, -0.04243125021457672, -0.08985349535942078, 0.5796363353729248, 0.14638185501098633, 0.2795764207839966, 0.9926307797431946, 0.6648935675621033, 0.5562707185745239, 0.5564876198768616, 0.6026772856712341, 0.30205467343330383, 0.23519235849380493, 0.17602117359638214, 0.2240726202726364, -0.20474743843078613, -0.21495243906974792, 0.04648546501994133, -0.026802347972989082, -0.4161248207092285, -0.050851721316576004, -0.16608084738254547, 0.15604040026664734, 0.21743622422218323, 0.8674929738044739, -0.19265605509281158, -0.2103864848613739, -0.08400434255599976, 0.05318374186754227, -0.030138008296489716, -0.07016532123088837, -0.5402645468711853, 0.18496301770210266, 0.026265215128660202, 0.543928325176239, 0.531080961227417, 0.4501735270023346, 0.6038781404495239, 0.4769321382045746, 0.6094956398010254, 0.685835599899292, 0.15982352197170258, -0.321152001619339, -0.5137131214141846, -0.02648317813873291, -0.42856913805007935, -0.3898676335811615, -0.14074450731277466, -0.028642084449529648, -0.034367337822914124, 0.3587471842765808, 0.22695814073085785, 0.35257989168167114, 0.12534064054489136, 0.2991717457771301, 0.06626119464635849, 0.0700140967965126, 0.0515921488404274, 0.04393122345209122, 0.2848546802997589, -0.32422327995300293, -0.5048155188560486, -0.7474201917648315, -0.1520698517560959, 0.0970563143491745, -0.23898597061634064, -0.10975721478462219, -0.3581920266151428, 0.1612473875284195, 0.004582437686622143, -0.19909735023975372, 0.33080384135246277, 0.23686416447162628, -0.32023558020591736, 0.049475815147161484, 0.43568551540374756, 0.17755497992038727, 0.07453517615795135, 0.06901995837688446, -0.08227135241031647, 0.18011972308158875, 0.10257135331630707, -0.05157055705785751, -0.07400362938642502, 0.08145584911108017, -0.009138137102127075, 0.02800842374563217, -0.04867001250386238, 0.08684250712394714, 0.16885174810886383, -0.3433696925640106, -0.1615758240222931, -0.2566748857498169, -0.39510834217071533, 0.3773922324180603, 0.48528626561164856, 0.30658140778541565, 0.17820146679878235, -0.16362082958221436, -0.7219657301902771, 0.37208086252212524, 0.12673355638980865, -0.32129716873168945, -0.6581606268882751, -0.8473466634750366, -0.6876960396766663, -0.5534799098968506, 0.17186246812343597, 0.068931944668293, -0.07831327617168427, -0.0345427431166172, -0.06413725018501282], [0.017068594694137573, 0.02428855001926422, 0.06061188131570816, -0.012592561542987823, -0.01614110916852951, 0.07694225758314133, -0.06789544224739075, -0.07700879126787186, 0.035081736743450165, 0.06547432392835617, -0.0073776766657829285, 0.043912507593631744, 0.0531177893280983, -0.08676116168498993, -0.07251142710447311, 0.004294226877391338, 0.08050722628831863, -0.02185141295194626, 0.041063956916332245, 0.02998923510313034, 0.0208636075258255, 0.024671591818332672, -0.01002310961484909, 0.05761241167783737, -0.05416484177112579, 0.056323446333408356, -0.03498217836022377, -0.037154462188482285, -0.05401559919118881, 0.0409485325217247, -0.060659922659397125, -0.014059051871299744, -0.03776973858475685, -0.03596181422472, -0.09217139333486557, -0.126369446516037, 0.10743455588817596, 0.18045584857463837, 0.048417024314403534, -0.15232712030410767, -0.21283608675003052, -0.2673106789588928, -0.10556640475988388, 0.381957471370697, -0.10933827608823776, -0.052667874842882156, -0.25981730222702026, -0.0647956058382988, 0.2095419317483902, 0.2628471553325653, 0.17253568768501282, 0.2325563132762909, 0.01133330911397934, -0.026324205100536346, -0.03791273012757301, 0.05277303606271744, 0.05769055336713791, 0.02430891990661621, 0.01347510889172554, 0.23999252915382385, 0.2701672315597534, -0.03444753959774971, -0.36507290601730347, -0.09823565930128098, -0.10461463034152985, -0.8732233047485352, -1.2383402585983276, -1.3871937990188599, -1.0456397533416748, -1.1466383934020996, -1.0150047540664673, -0.8491653800010681, -0.5937148928642273, -0.6840992569923401, -0.8040340542793274, -0.2031961977481842, -0.8596424460411072, -0.6547574996948242, -0.17581355571746826, 0.10050631314516068, 0.13187089562416077, -0.123833566904068, -0.0118069127202034, 0.004657424986362457, -0.028434570878744125, 0.05268455296754837, 0.330635666847229, 0.3791676461696625, 0.07413572072982788, -0.5602326989173889, -0.7189542651176453, -0.4885742962360382, -0.28759241104125977, -0.6101046204566956, -0.4234359562397003, -0.5815821886062622, -0.6379859447479248, -0.7278323173522949, -0.6864880323410034, -0.8205822110176086, -0.7820389270782471, -0.7851701974868774, -0.760962724685669, -0.39885976910591125, 0.0175612922757864, -0.16821391880512238, 0.12371530383825302, -0.3495118021965027, -0.2835696041584015, -0.33642515540122986, 0.15724651515483856, 0.035585738718509674, -0.027096327394247055, 0.06961382180452347, 0.32090768218040466, 0.6503413915634155, 0.5479918122291565, 0.401950478553772, -0.3691657781600952, -0.5790236592292786, -1.0453790426254272, -0.9568396210670471, -1.241929531097412, -0.47309333086013794, -0.9182847142219543, -0.9867132306098938, -0.900303304195404, -0.3970750570297241, 0.09292393922805786, 0.05662207305431366, 0.050240933895111084, 0.4040406346321106, -0.07116609066724777, -0.0652690976858139, 0.05315639078617096, 0.3757965564727783, 0.23955599963665009, 0.05045468732714653, -0.2933708429336548, -0.04095849022269249, -0.03420673683285713, 0.04992087930440903, 0.26047492027282715, 0.3608081340789795, 0.2724466919898987, 0.3813803791999817, 0.2310461699962616, 0.4894971549510956, 0.21705050766468048, 0.1907380074262619, 0.15046560764312744, 0.1682421714067459, 0.13802938163280487, -0.5148351788520813, -0.3407067656517029, -0.025285927578806877, -0.3481146991252899, -0.22801469266414642, -0.08402144908905029, -0.20715861022472382, -0.46749284863471985, -0.19602178037166595, -0.26627546548843384, -0.30426719784736633, 0.30175986886024475, -0.4240225553512573, -0.39424222707748413, -0.09094896912574768, -0.029064945876598358, -0.25090301036834717, -0.09927984327077866, 0.12899130582809448, -0.11371531337499619, 0.09141043573617935, 0.2997574508190155, 0.4191257655620575, 0.16702885925769806, 0.3145348131656647, 0.3237656354904175, 0.022134976461529732, 0.22085846960544586, 0.2901737689971924, 0.16479374468326569, 0.05556171387434006, 0.2516152858734131, 0.29063886404037476, -0.07133960723876953, -0.004455443471670151, -0.17370867729187012, -0.07807249575853348, 0.3564116358757019, 0.02791970781981945, 0.0681193396449089, -0.5680245757102966, -0.46999186277389526, 0.1129600927233696, 0.1476304531097412, 0.38889560103416443, 0.26440995931625366, 0.6402478218078613, -0.19969935715198517, -0.34475407004356384, -0.03648599982261658, 0.24973922967910767, 0.2276201695203781, 0.1795399785041809, -0.026250319555401802, -0.16273218393325806, -0.08794433623552322, 0.28365594148635864, 0.08521575480699539, -0.06411921977996826, 0.39688339829444885, 0.4913727045059204, 0.10163666307926178, 0.0008561505819670856, 0.39314785599708557, 0.18948565423488617, -0.22929325699806213, -0.05581081658601761, 0.11098039895296097, -0.7133553624153137, -0.14868591725826263, 0.11528022587299347, -0.25306031107902527, -0.04300479218363762, -0.08097987622022629, 0.48543426394462585, 0.15768426656723022, 0.04946160316467285, 0.0381912998855114, 0.45574715733528137, 0.6177716851234436, 0.11299018561840057, -0.13322165608406067, -0.18991127610206604, -0.22271177172660828, -0.20049260556697845, 0.37657666206359863, 0.29803359508514404, 0.15914683043956757, 0.3350904881954193, 0.1882861703634262, 0.010031141340732574, 0.49236518144607544, 0.019108083099126816, -0.3980574309825897, -0.1833571195602417, -0.08493512123823166, -0.8607125878334045, -0.4373484253883362, 0.06728685647249222, 0.4267822504043579, 0.984086811542511, -0.24051052331924438, -0.3089413046836853, -0.5908376574516296, -0.6979053616523743, 0.018480414524674416, 0.22640486061573029, 0.3704485297203064, 0.2967170774936676, -0.16491177678108215, -0.37170544266700745, -0.2546048164367676, 0.023798570036888123, 0.4757109582424164, 0.56429523229599, 0.40278491377830505, 0.3173016607761383, -0.17204587161540985, 0.0017559801926836371, 0.19326233863830566, -0.1266086995601654, 0.17659011483192444, 0.0010016688611358404, 0.12381064891815186, -0.5963881611824036, -0.531643807888031, 0.45707574486732483, 0.5579593777656555, 0.4312288761138916, 0.5151202082633972, -0.8380573391914368, -0.767397940158844, -0.6805065274238586, -0.45984095335006714, -0.13866503536701202, 0.14301535487174988, 0.06701643019914627, -0.5851312875747681, -0.6066102981567383, -0.6442593932151794, 0.31478896737098694, 0.576475977897644, 1.0467501878738403, 0.677344799041748, 0.09151041507720947, -0.29229554533958435, 0.04532185196876526, 0.1496899276971817, -0.012179822660982609, 0.009036221541464329, -1.171395182609558, -0.4665796756744385, 0.2677055299282074, 0.019640011712908745, 0.5820019245147705, 0.476871520280838, -0.03462488576769829, -0.2192462533712387, 0.1226787343621254, -0.009017128497362137, -0.17238442599773407, -0.6255258917808533, 0.15974348783493042, 0.28547972440719604, 0.22772078216075897, -0.16823522746562958, -0.34343767166137695, -0.12255274504423141, 0.13697807490825653, 0.6237024068832397, 0.990199863910675, 0.4357292056083679, 0.020203540101647377, -0.34073522686958313, -0.18328846991062164, 0.015269952826201916, -0.10721058398485184, 0.10604656487703323, 0.006575979758054018, -0.6180666089057922, -0.09357159584760666, -0.20220841467380524, 0.6445425748825073, 0.294871062040329, 0.9540534615516663, 0.2361387461423874, -0.3694039583206177, -0.8085067272186279, -1.0074427127838135, -0.2448667287826538, 0.6837037801742554, 0.04214421287178993, -0.018708011135458946, -0.4918161928653717, -0.6751379370689392, -0.2386513650417328, -0.22575721144676208, 0.4060169756412506, 0.9043774604797363, 0.33266282081604004, -0.055961817502975464, 0.029714642092585564, -0.4726804196834564, -0.45193997025489807, -0.06311137229204178, -0.11818310618400574, -0.42112600803375244, -0.9301352500915527, 0.28910091519355774, 0.16012687981128693, 0.4391733705997467, -0.19892577826976776, 0.4578992426395416, 0.518729567527771, -0.40546655654907227, -1.0568771362304688, -0.6206541657447815, -0.1842881739139557, 0.2510465085506439, -0.2788519561290741, -0.3087385296821594, -0.5922144651412964, -0.8606602549552917, -0.8496171236038208, -0.20944029092788696, 0.13876140117645264, 0.39726516604423523, 0.39118096232414246, 0.17508532106876373, 0.23751936852931976, -0.18879392743110657, -0.3934473991394043, 0.2007582038640976, -0.565678060054779, -0.1004459485411644, -0.24365051090717316, 0.2299003303050995, -0.18387897312641144, -0.5398615002632141, -0.18300388753414154, 0.12992708384990692, 0.10557670891284943, -0.2190977931022644, -0.3978637754917145, -0.7054377198219299, -0.353732168674469, 0.14401498436927795, -0.4282473027706146, -0.510181725025177, -0.35457050800323486, -0.43768566846847534, -0.4472007751464844, -0.2291988879442215, 0.37577757239341736, 0.7207149267196655, 0.5054610967636108, 0.2216080129146576, 0.08628883957862854, 0.07260867208242416, -0.24286344647407532, -0.18351036310195923, -0.26945051550865173, -0.5840994715690613, -0.5550248622894287, -0.14753717184066772, 0.09315228462219238, -0.44080066680908203, 0.046785760670900345, 0.061657343059778214, -0.6541411280632019, -0.3526943624019623, -0.512844443321228, -1.0043236017227173, -0.3023301362991333, -0.6067598462104797, -0.48562920093536377, -0.5037356019020081, -0.24077998101711273, -0.01394618395715952, -0.31360676884651184, 0.027132663875818253, 0.5026570558547974, 0.6788056492805481, 0.2272844910621643, 0.07324103266000748, 0.03863966837525368, -0.5703791379928589, -0.13837288320064545, 0.12206979095935822, 0.14185792207717896, -0.7718392014503479, -0.6205869913101196, -0.5945334434509277, -0.23870691657066345, -0.24323128163814545, 0.37792345881462097, 0.10224191099405289, -0.4220999479293823, -0.838192343711853, -0.5577706098556519, -0.6999462246894836, -0.4161061644554138, -0.44475057721138, -0.12666189670562744, 0.028618864715099335, -0.2886975407600403, -0.5880597233772278, -0.22388006746768951, 0.35954925417900085, 0.5247122645378113, 0.2788001298904419, 0.40167155861854553, 0.2307797521352768, -0.1661757230758667, -0.16342288255691528, 0.030546782538294792, -0.089933842420578, -0.4763418734073639, -1.1497390270233154, -1.0947577953338623, -1.1889069080352783, -0.40012240409851074, -0.39070743322372437, 0.024370774626731873, 0.544700026512146, -0.3320753276348114, -1.1347990036010742, -0.3097803592681885, -0.1133643314242363, 0.1416565328836441, -0.25558194518089294, -0.19262239336967468, -0.011327805928885937, -0.28119218349456787, -0.3704575002193451, 0.19095823168754578, 0.502216637134552, 0.5924612283706665, 0.04779139161109924, 0.2803352177143097, -0.059824008494615555, 0.16290560364723206, -0.045048728585243225, -0.14711636304855347, -0.18667271733283997, -0.354307621717453, -0.726396918296814, -0.2869134545326233, 0.618788480758667, 0.2531888782978058, -0.5792458653450012, 0.433723121881485, 0.2748446762561798, -0.11191732436418533, -0.529356062412262, -0.13572639226913452, -0.24035045504570007, -0.6325557827949524, -0.16556034982204437, 0.08530895411968231, -0.353572279214859, -0.5992693901062012, -0.24500349164009094, 0.48439714312553406, 0.5316455364227295, 0.2003033459186554, -0.013947689905762672, -0.021369503811001778, -0.4220699965953827, -0.008995489217340946, 0.11484818160533905, -0.2566780745983124, -0.3752717673778534, -0.8641669154167175, -0.6845383644104004, -0.6226708292961121, 0.3549569845199585, 0.6159870028495789, 0.2519388198852539, 0.003469732590019703, 0.6671083569526672, 0.5282554626464844, -0.8222081661224365, 0.1458469033241272, -0.10212700068950653, -0.45831775665283203, -0.34911254048347473, -0.10852080583572388, -0.2069793939590454, -0.5787035822868347, -0.05089468136429787, 0.47226783633232117, 0.07444330304861069, -0.1494332104921341, -0.5393552780151367, -0.7716239094734192, -1.147291898727417, -1.071724772453308, -0.6628128290176392, -0.41603758931159973, 0.1631154716014862, -0.5744890570640564, -1.2821741104125977, -0.5582796335220337, 0.24311625957489014, -0.09082910418510437, 0.48838382959365845, 0.02561238408088684, 0.38261669874191284, 0.11896375566720963, -0.5414376854896545, -0.7474043965339661, -0.4030873477458954, -0.46521925926208496, -0.2926647961139679, -0.1733153611421585, -0.5436909794807434, -0.18169920146465302, 0.15214957296848297, 0.37002697587013245, 0.04034695401787758, -0.27595657110214233, -0.8403741717338562, -0.9799594879150391, -1.2836945056915283, -1.7691649198532104, -1.453897476196289, -0.977366030216217, -0.044372282922267914, -0.2608201205730438, -0.5122555494308472, -0.7744777202606201, -0.3285636007785797, 0.13780902326107025, -0.07015124708414078, 0.1321171671152115, -0.2322581708431244, -0.26106885075569153, -0.19467510282993317, -0.16688105463981628, 0.16007636487483978, -0.2682111859321594, -0.3255223333835602, -0.3719668388366699, -0.270383358001709, 0.050614792853593826, -0.09796848148107529, -0.21444031596183777, -0.3935577869415283, -0.47945311665534973, -0.8366195559501648, -0.896634578704834, -1.5575076341629028, -1.2142099142074585, -1.101650357246399, -0.5375078320503235, 0.17985589802265167, -0.04397720843553543, -0.6461162567138672, 0.16350845992565155, 0.05383491516113281, 0.5599201321601868, 0.0876680314540863, -0.009721306152641773, 0.029943939298391342, -0.9498506784439087, -0.5655121207237244, 0.23355059325695038, -0.01426541805267334, 0.2059544026851654, -0.07738608121871948, -0.30838099122047424, 0.09181325882673264, -0.0916537195444107, -0.5668107867240906, -0.5772910714149475, -0.6835438013076782, -0.2828245759010315, -0.38930609822273254, -0.5215584635734558, -0.7465993165969849, -0.834149956703186, -0.11462075263261795, -0.10948639363050461, -0.10111337900161743, -0.29301637411117554, -0.7561270594596863, 0.028327342122793198, 0.23433524370193481, 0.5602921843528748, 0.029812246561050415, -0.05258952081203461, -0.07072892785072327, -0.8988784551620483, -1.0662860870361328, 0.10543947666883469, -0.12608206272125244, 0.5141121745109558, 0.2841598391532898, -0.45967811346054077, 0.0619235560297966, -0.4119739234447479, -0.4635906517505646, -0.4660196602344513, -0.2962955832481384, -0.32573047280311584, -0.7360146045684814, -0.7209010720252991, -0.9546496272087097, -0.6680841445922852, -0.3523261845111847, -0.873638391494751, -0.2889306843280792, 0.01655941642820835, -0.2934972047805786, 0.3428370952606201, -0.29616400599479675, 0.7277563214302063, 0.07861784845590591, 0.0131254643201828, -0.005943655967712402, 0.22323808073997498, -0.46165362000465393, 0.18808501958847046, 0.2139335572719574, 0.035734646022319794, 0.11685477197170258, -0.32094094157218933, -0.3156556189060211, -0.42859721183776855, -0.2557695806026459, -0.6754078269004822, -0.5930426716804504, -0.36879798769950867, -0.9067236185073853, -1.297911524772644, -0.4592902958393097, -1.1501516103744507, -0.6659746766090393, -0.6542903780937195, -0.26250550150871277, -0.253912091255188, -0.330282598733902, 0.26669666171073914, 0.03216176480054855, 0.405431866645813, 0.010947935283184052, -0.08075869083404541, -0.07938908785581589, -0.6323347687721252, 0.6838377714157104, 0.4428291320800781, 0.14122314751148224, -0.16414649784564972, -0.14886075258255005, -0.12923353910446167, -0.15082232654094696, -0.486850768327713, -0.11868343502283096, -0.4119490087032318, -0.4596821069717407, -0.04268715903162956, -0.4465020000934601, -0.4679524600505829, -0.5854856371879578, -0.6093214750289917, -0.4587440490722656, -0.4000478982925415, -0.31627357006073, -0.2781734764575958, -0.447684645652771, 0.34170201420783997, -0.09834685921669006, -0.2625545859336853, 0.006449759006500244, -0.06356067210435867, -0.04265483841300011, -0.05894806981086731, -0.07734474539756775, -1.01042640209198, -0.09226887673139572, -0.20999915897846222, -0.3939335346221924, 0.004248869605362415, -0.0763460248708725, -0.2743232846260071, -0.7246588468551636, -0.8633912205696106, -0.26822492480278015, -0.47491946816444397, -0.1828790009021759, -0.7018989324569702, -1.066622018814087, -0.7176899909973145, -0.7427138686180115, -0.49092063307762146, -0.814967691898346, 0.13181118667125702, -0.19864089787006378, -0.3623342216014862, 0.2972261309623718, 0.06780944019556046, 0.02543741464614868, -0.00415164977312088, -0.0019605308771133423, -0.07422074675559998, -0.03027431294322014, 0.5072529315948486, 0.9909490942955017, -0.4579985439777374, -0.24599793553352356, -0.24116775393486023, -0.36408644914627075, -0.12644661962985992, -0.38089698553085327, -0.15056797862052917, 0.5761155486106873, -0.5942912697792053, -0.7084987759590149, -0.05416813865303993, -0.06107356399297714, -0.15632063150405884, -0.04013349115848541, -0.3379153311252594, -0.04535999149084091, 0.080837681889534, 0.3723905682563782, 0.08293033391237259, 0.023691177368164062, -0.050846781581640244, 0.059947796165943146], [0.07158377021551132, 0.008391499519348145, -0.08261388540267944, 0.046590499579906464, 0.039601393043994904, 0.011422619223594666, -0.01487000286579132, 0.0709751769900322, 0.007150694727897644, -0.028258230537176132, -0.02066703885793686, 0.005302250385284424, -0.040111079812049866, 0.058495957404375076, -0.12682443857192993, -0.06845908612012863, -0.0035306140780448914, -0.01073763519525528, -0.06355512142181396, -0.07156041264533997, -0.08174803107976913, 0.012508660554885864, -0.08261988312005997, 0.03565017133951187, 0.04333343356847763, 0.008373834192752838, -0.08100409805774689, -0.03741350397467613, -0.062429122626781464, -0.07337170094251633, -0.06146182864904404, -0.052172787487506866, -0.14949177205562592, -0.3035116195678711, -0.6935161352157593, -0.9250608086585999, -0.6904278993606567, -0.9003042578697205, -0.7917904257774353, -1.488603115081787, -1.2071672677993774, -1.5828921794891357, -0.12808459997177124, -0.8420675992965698, -1.0856866836547852, -0.9802452921867371, -0.8699568510055542, -0.6261475086212158, -0.8716440200805664, -0.6477574706077576, -0.5499874353408813, -0.5442840456962585, 0.008306920528411865, 0.0793389156460762, 0.03462183475494385, 0.048432521522045135, -0.08229446411132812, 0.036915235221385956, -0.08642898499965668, -0.400237500667572, -0.6143687963485718, -0.41122469305992126, -1.0380903482437134, -0.9551597237586975, -1.2963424921035767, -1.4083997011184692, -1.8857749700546265, -2.298689126968384, -1.8881282806396484, -2.1623952388763428, -1.9103294610977173, -0.9805284142494202, -0.6622998118400574, -0.6850998997688293, -1.0959351062774658, -0.5377011299133301, -0.7034876942634583, -0.7343599796295166, -0.8183808326721191, -0.7338402271270752, -0.39217516779899597, -0.495477557182312, 0.060785360634326935, 0.06522158533334732, 0.01919691264629364, -0.06375826150178909, 0.1270141303539276, -0.693778395652771, -0.7004141807556152, -0.2746973931789398, -0.6019595265388489, -1.1360450983047485, -1.199696660041809, 0.015162940137088299, -0.30054304003715515, -0.3233907222747803, -1.3251049518585205, -1.975223422050476, -1.470326542854309, -1.0965033769607544, -0.4995332956314087, -0.3942725956439972, -1.3953036069869995, -0.9090001583099365, -0.05286658555269241, -0.3002156913280487, 0.16769209504127502, -0.1487572193145752, -0.09077495336532593, -0.08606688678264618, -0.14356254041194916, 0.07009784132242203, 0.03829953819513321, 0.17259737849235535, -0.09846939146518707, -0.5220524668693542, 0.09850511699914932, 0.45429739356040955, 0.2424830198287964, -0.10659555345773697, 0.1404789537191391, 0.13554014265537262, 0.11056549102067947, -0.10435611009597778, -0.21370619535446167, -0.48258113861083984, -1.3280802965164185, -0.8779261708259583, -0.1652621030807495, -0.16036848723888397, -0.5019972920417786, 0.14570985734462738, 0.5785752534866333, 0.12787361443042755, 0.48074135184288025, 0.07028163224458694, -0.018282271921634674, -0.30525726079940796, -0.41477471590042114, -0.1488925963640213, -0.02859799936413765, -0.030940283089876175, -0.32843518257141113, -0.3414703905582428, 0.1803654134273529, 0.27177464962005615, 0.01785935088992119, 0.49144089221954346, 0.6959588527679443, 0.42151305079460144, 0.27054086327552795, 0.022510040551424026, -0.13256241381168365, -0.9397707581520081, -1.2328386306762695, -1.0659830570220947, -1.005887508392334, -0.48894912004470825, 0.06836623698472977, -0.023937072604894638, 0.13474711775779724, 0.03824959322810173, 0.30985361337661743, 0.6311692595481873, 0.4685262441635132, -0.1783420443534851, -0.3163546323776245, -0.02310935966670513, 0.05549495667219162, -0.01547275297343731, -0.084661103785038, -0.14054931700229645, 0.26014021039009094, 0.20782190561294556, 0.08045525848865509, -0.17599447071552277, -0.03569824621081352, 0.23099786043167114, -0.08279247581958771, -0.1958184689283371, -0.3300155699253082, -0.4658275842666626, -0.712906002998352, -1.3243385553359985, -1.389893889427185, -0.3544892370700836, 0.07507724314928055, 0.3009229898452759, 0.10079073160886765, 0.11233064532279968, 0.1649196743965149, 0.34741538763046265, 0.3276570737361908, -0.15907588601112366, -0.1775325983762741, 0.14722158014774323, 0.19525673985481262, -0.5095103979110718, 0.2622567117214203, 0.05172443017363548, 0.5713688135147095, 0.22499485313892365, 0.14020384848117828, -0.08621380478143692, -0.001865691039711237, -0.15440908074378967, -0.3712127208709717, -0.10857964307069778, -0.13999781012535095, -0.3579495847225189, -0.5686639547348022, -1.1845053434371948, -0.8614758849143982, 0.03905680775642395, 0.21504078805446625, 0.37062299251556396, 0.3808099031448364, -0.08469531685113907, 0.02808499149978161, 0.1236606165766716, 0.2034560739994049, -0.6220568418502808, -0.1842416524887085, 0.17871327698230743, -0.34199604392051697, -0.3173768222332001, 0.4126572608947754, 0.12434659153223038, 0.11358534544706345, 0.13926218450069427, 0.3562229871749878, -0.07519198954105377, -0.28185003995895386, -0.26650190353393555, -0.13865159451961517, -0.12152508646249771, -0.21509231626987457, -0.3632213771343231, -0.7080706357955933, -0.9865713715553284, -0.7267804741859436, 0.38424697518348694, 0.03929879516363144, 0.05743036046624184, -0.3532250225543976, 0.09647967666387558, -0.06589268893003464, -0.21973328292369843, -0.4675072133541107, -0.5732885599136353, -0.44473594427108765, -0.598055362701416, -0.11150744557380676, -0.351431280374527, 0.22649404406547546, -0.26783624291419983, 0.35429486632347107, -0.3030972480773926, -0.07287633419036865, -0.07337331771850586, -0.041684363037347794, -0.2731243371963501, -0.1651490330696106, -0.22363536059856415, -0.36583206057548523, -0.47165557742118835, -0.7874366641044617, -0.6590593457221985, -0.23788243532180786, 0.04356313496828079, 0.3429512083530426, -0.04267016798257828, -0.042460452765226364, 0.2348199188709259, -0.4134364128112793, -0.47169238328933716, -0.4732764959335327, -0.6313535571098328, -1.1170748472213745, -0.3418883979320526, -0.024337714537978172, 0.25284427404403687, -0.02981000393629074, 0.006418961565941572, 0.3678723871707916, -0.28531408309936523, 0.08126797527074814, 0.1809544563293457, 0.22522199153900146, -0.015040572732686996, -0.2672085165977478, -0.18793246150016785, -0.42009568214416504, -0.5197725296020508, -0.5376160740852356, -0.23877227306365967, -0.058255624026060104, 0.40636903047561646, 0.04026486352086067, -0.035457417368888855, -0.18841522932052612, 0.01895478181540966, -0.2103622555732727, -1.0316311120986938, -1.063890814781189, 0.3018748462200165, -0.47125735878944397, 0.0350688099861145, 0.2890521287918091, 0.04039371758699417, 0.4738462269306183, -0.05441541597247124, -0.47563984990119934, 0.11667269468307495, 0.05350271239876747, 0.4298100471496582, 0.2704129219055176, -0.006075805053114891, 0.009357752278447151, -0.1881863921880722, -0.09304836392402649, 0.015082639642059803, 0.17634151875972748, 0.3547401428222656, 0.5392645597457886, 0.11789612472057343, -0.07520879805088043, -0.13538382947444916, -0.2268659919500351, -0.20422790944576263, -0.7627536058425903, -1.6923404932022095, -1.8366652727127075, 0.01278375368565321, -0.06372501701116562, -0.2810859978199005, 0.2533147931098938, 0.7471437454223633, 0.19368432462215424, -0.06719270348548889, -0.20634526014328003, -0.020118141546845436, 0.014473263174295425, 0.2441948801279068, 0.1994418501853943, 0.16430500149726868, 0.12760117650032043, 0.20353707671165466, 0.5107196569442749, 0.5411958694458008, -0.17878295481204987, 0.36328819394111633, 0.15184390544891357, -0.08874249458312988, 0.20176662504673004, -0.01729653589427471, -0.41171175241470337, -0.15664362907409668, -0.2684113383293152, -1.5873295068740845, -0.8076984286308289, -0.26992180943489075, -0.3834550380706787, -0.46622318029403687, -0.12843957543373108, 0.2563105821609497, -0.20926034450531006, -0.22108881175518036, 0.35959500074386597, 0.5653374195098877, 0.1761331409215927, -0.049790311604738235, 0.07960139214992523, 0.015613057650625706, 0.005965410731732845, -0.11961226165294647, -0.09142443537712097, -0.4022844433784485, -0.32923194766044617, 0.048212431371212006, -0.1438474804162979, -0.16375403106212616, 0.1647941619157791, -0.2706148326396942, -0.38869115710258484, -0.2101116180419922, -0.7150028944015503, -1.2089420557022095, -0.5441499352455139, -0.8448535203933716, -0.8803071975708008, -0.18831029534339905, -0.25448736548423767, -0.10678137838840485, 0.09495147317647934, -0.002714204601943493, 0.7793729305267334, 0.9303421378135681, 0.05857284367084503, -0.048614826053380966, 0.20124123990535736, 0.13935358822345734, 0.1094924584031105, -0.30195003747940063, -0.0927562490105629, 0.008154544048011303, -0.030023405328392982, 0.09000544995069504, 0.4238145053386688, 0.33764705061912537, 0.11162439733743668, 0.053906433284282684, -0.08438485860824585, -0.32163432240486145, -0.08663573116064072, 0.09246720373630524, 0.04155188053846359, -0.5248216986656189, -0.8363096714019775, -0.0928342193365097, 0.1313990205526352, -0.3174595832824707, 0.2680260241031647, 0.5050691962242126, 0.21085426211357117, 0.200969398021698, -0.029969051480293274, 0.1916808784008026, -0.20391111075878143, 0.20178624987602234, 0.004265408497303724, -0.13923683762550354, 0.028437800705432892, 0.19746874272823334, 0.23184771835803986, 0.4162061810493469, 0.5151500105857849, 0.3153494596481323, 0.17867323756217957, 0.4440951645374298, 0.2220129370689392, 0.06086625158786774, 0.36659473180770874, 0.26316383481025696, 0.15089093148708344, -0.44880831241607666, -0.3911873698234558, 0.3067557215690613, 0.3708172142505646, -0.17624610662460327, 0.27675673365592957, 0.4236040413379669, -0.19675815105438232, -0.2208460569381714, 0.06633975356817245, 0.10040223598480225, -0.0045959376730024815, 0.19101819396018982, -0.31456929445266724, -0.3296470046043396, -0.227214053273201, -0.11953286081552505, 0.29808852076530457, 0.43020617961883545, 0.3857411742210388, 0.42556142807006836, 0.5991422533988953, 0.6285886764526367, 0.8453091382980347, 0.6382220387458801, 0.5571705102920532, 0.4349372386932373, 0.09585645794868469, -0.8043701648712158, -0.2298612743616104, -0.33286815881729126, 0.00487343966960907, 0.10386601835489273, 0.3509930670261383, -0.06788476556539536, -0.05697799474000931, -0.06949131935834885, 0.15293392539024353, -0.0059841531328856945, 0.02018520049750805, -0.24617333710193634, -0.1468319296836853, -0.043080177158117294, -0.14933748543262482, -0.2111872136592865, 0.09270062297582626, 0.2208382785320282, 0.40334072709083557, 0.46737179160118103, 0.5565808415412903, 0.15700963139533997, 0.47500747442245483, 0.7292599081993103, 0.2148812860250473, 0.47948387265205383, -0.11606735736131668, -0.15389561653137207, 0.37333089113235474, -0.42132219672203064, -0.5610858798027039, 0.3788992166519165, 0.25663885474205017, 0.06104562431573868, -0.08361928164958954, -0.1964217722415924, 0.11069325357675552, 0.11550825834274292, -0.10615359991788864, -0.22112540900707245, -0.4896218478679657, -0.2164130061864853, -0.16198019683361053, -0.0945318341255188, -0.005633112974464893, 0.3749525249004364, 0.3617341220378876, -0.2229715883731842, -0.3002079427242279, -0.668648362159729, -0.5173256993293762, -0.14727242290973663, -0.4707711935043335, -0.3122676610946655, -0.016541501507163048, -0.13715395331382751, 0.24663715064525604, 0.7209535837173462, 0.05373026058077812, 0.017797021195292473, 0.4794050455093384, 0.5516774654388428, 0.051457520574331284, -0.061831988394260406, 0.16279400885105133, 0.09058477729558945, -0.14676938951015472, -0.015899982303380966, -0.09656612575054169, -0.16696007549762726, -0.7731646299362183, -0.28523769974708557, 0.20099681615829468, 0.44994956254959106, 0.3722888231277466, -0.44362807273864746, -0.8108536601066589, -1.270938754081726, -1.0534840822219849, -1.230385422706604, -1.1493628025054932, -1.6719157695770264, -0.6633223295211792, -0.5447096228599548, 0.13744473457336426, 0.49753260612487793, -0.00857514888048172, 0.09699370712041855, 0.34181174635887146, 0.14251434803009033, 0.29951953887939453, -0.10886272042989731, 0.13648314774036407, 0.23215487599372864, 0.14906850457191467, -0.3638021945953369, -0.49352145195007324, -0.2852608263492584, -0.3910576403141022, -0.41583287715911865, 0.013315198943018913, 0.31511661410331726, 0.655026912689209, -0.08312234282493591, 0.057223886251449585, -0.7212607264518738, -0.8005300760269165, -0.9027937650680542, -1.0364233255386353, -1.477445363998413, -0.23911571502685547, -0.4673466980457306, -0.3291744589805603, -0.26675939559936523, 0.15492014586925507, 0.13307304680347443, -0.31027400493621826, 0.08732720464468002, 0.06940963864326477, 0.02018141560256481, 0.04237854480743408, -0.18737749755382538, 0.10790948569774628, -0.052580635994672775, -0.3131199777126312, -0.5604812502861023, -0.5454167127609253, -0.25574183464050293, -0.1663091778755188, 0.28509047627449036, 0.36966508626937866, 0.14645414054393768, 0.08526475727558136, 0.0661742091178894, -0.4916130006313324, -0.5958288311958313, -0.2644466757774353, -0.15981169044971466, -0.2777997851371765, -0.6829928159713745, -0.7143139243125916, 0.057967960834503174, 0.15590810775756836, 0.19828002154827118, 0.05444883927702904, 0.3019244968891144, -0.10377844423055649, 0.33259260654449463, 0.24226537346839905, 0.025630125775933266, -0.1249113455414772, -0.11501024663448334, -0.29574593901634216, -0.3118082880973816, -0.285827100276947, 0.050191834568977356, -0.09218569099903107, 0.36406105756759644, 0.40519505739212036, 0.3177852928638458, 0.1828286051750183, 0.8282825946807861, 0.5402660965919495, 0.08030606806278229, -0.15054985880851746, -0.5044248700141907, -0.3474467098712921, -0.2717893719673157, -0.03397679701447487, 0.06774873286485672, 0.0850701853632927, 0.045705847442150116, -0.5476869940757751, 0.3875402808189392, -0.10635513812303543, 0.14121201634407043, 0.3784935772418976, 0.3862243890762329, 0.05312330648303032, 0.24979591369628906, -0.3554566502571106, -0.2588373124599457, -0.025363346561789513, -0.20137228071689606, -0.09843160957098007, 0.4169553816318512, 0.23832489550113678, 0.20914536714553833, -0.007133227773010731, 0.4833349585533142, 0.33256328105926514, 0.26074719429016113, -0.16063514351844788, -0.5941259860992432, -0.06693500280380249, 0.1158585473895073, 0.154108926653862, 0.0578821524977684, -0.05617271736264229, 0.03116348385810852, -0.41453343629837036, -0.2615133225917816, 0.06087905541062355, 0.33283406496047974, 0.36740097403526306, 0.10207105427980423, 0.141741082072258, 0.3074776232242584, 0.011106044054031372, -0.32192564010620117, -0.45192328095436096, -0.1042691171169281, 0.23106159269809723, -0.14035122096538544, -0.38117390871047974, 0.08533094078302383, 0.22367385029792786, 0.39973583817481995, 0.22625713050365448, 0.28352445363998413, 0.4126480221748352, 0.31876340508461, -0.345202773809433, 0.6568797826766968, 0.3858523666858673, 0.001735001802444458, 0.07615990191698074, 0.08044666796922684, -0.2817020118236542, 0.01460353285074234, -0.5198202729225159, -0.40616679191589355, -0.7517188787460327, -0.20920129120349884, 0.14210693538188934, -0.10811473429203033, 0.12724870443344116, 0.030363904312253, -0.2880435883998871, -0.14116115868091583, -0.3273104727268219, -0.17251144349575043, -0.5143895149230957, -0.601919949054718, -0.30608299374580383, -0.5171370506286621, -0.05133536085486412, 0.030141958966851234, -0.3459116220474243, 0.4246739447116852, -0.006415665149688721, -0.07639826089143753, -0.1348079890012741, -0.07674451172351837, -0.06878464668989182, -0.025794215500354767, 0.06682077795267105, -0.28586703538894653, -0.3830863833427429, -0.1568281054496765, -0.13400737941265106, -1.2311426401138306, -1.0893114805221558, -0.8991782069206238, -0.8504789471626282, -0.9193754196166992, -0.603103756904602, -1.0901049375534058, -1.2492197751998901, -0.9365036487579346, -0.8793286085128784, -0.5686198472976685, -1.1976908445358276, -0.8984066843986511, -0.8402944207191467, -0.8112021088600159, -0.9631734490394592, -0.27608776092529297, 0.195269376039505, -0.04786568507552147, -0.016359597444534302, -0.02375614643096924, 0.04851541668176651, 0.03513297438621521, -0.00030353665351867676, 0.024771422147750854, -0.12818102538585663, -0.023116298019886017, -0.2985234558582306, -0.48501187562942505, -0.5697191953659058, -0.7360586524009705, -0.9422230124473572, -0.586773157119751, -0.6845629215240479, -1.2617257833480835, -1.3943970203399658, -0.5393925309181213, -0.7033646106719971, -0.910866379737854, -0.7205386757850647, -0.605390191078186, -0.4230221211910248, -0.38071903586387634, -0.04158535227179527, 0.3587641417980194, -0.011741675436496735, 0.07416977733373642, -0.003458186984062195, 0.07548529654741287], [-0.0046119242906570435, -0.011616237461566925, 0.011294826865196228, -0.07818702608346939, 0.00419144332408905, -0.021215632557868958, 0.05365029722452164, 0.05623321980237961, -0.06688050925731659, 0.014188088476657867, 0.00713038444519043, 0.05992073565721512, 0.05219695717096329, 0.06588481366634369, 0.022301943972706795, -0.0959969013929367, -0.04649244621396065, -0.014034651219844818, -0.032507188618183136, 0.05783943086862564, -0.0700579434633255, 0.08105405420064926, 0.024451345205307007, 0.07651595026254654, -0.03548762574791908, 0.04211258143186569, -0.009000487625598907, 0.05141486972570419, 0.031183071434497833, -0.010220453143119812, -0.08225757628679276, 0.011691831052303314, 0.044716980308294296, -0.012292034924030304, 0.10931997746229172, 0.1258014589548111, 0.14476653933525085, 0.024844616651535034, 0.16218262910842896, 0.3662533164024353, 0.7622358798980713, 0.2200249284505844, -0.19432927668094635, 0.2174900323152542, 0.050694890320301056, -0.031260229647159576, -0.004659520462155342, 0.2598021328449249, 0.31819507479667664, 0.07444773614406586, 0.048815011978149414, 0.037540502846241, -0.07984166592359543, 0.02791917324066162, 0.03378085047006607, 0.04789537936449051, -0.03418925777077675, -0.037843912839889526, 0.036762818694114685, 0.4275173544883728, 0.5683197379112244, -0.10766435414552689, -0.1160147562623024, 0.10016729682683945, -0.4845987856388092, -0.33054548501968384, -0.5249873995780945, -0.5887060165405273, -0.6489250063896179, -0.7074245810508728, -0.6940096020698547, -0.4846966862678528, -0.06273399293422699, -0.2744978368282318, -1.1713097095489502, -1.0926471948623657, -1.3066072463989258, -0.8517621755599976, -0.7029241323471069, -0.4788116216659546, -0.1211342141032219, -0.3038812279701233, 0.028829142451286316, 0.059647299349308014, 0.02539745718240738, -0.05227750539779663, 0.025724129751324654, 0.40268734097480774, 0.15781685709953308, -0.32397329807281494, -0.42683714628219604, -0.014623409137129784, -0.25262850522994995, 0.22667022049427032, 0.1671590656042099, 0.015511054545640945, -0.5212019681930542, -0.5101789832115173, -0.24227578938007355, -0.5416617393493652, 0.25408580899238586, 0.34042689204216003, 0.0364646278321743, 0.2985670566558838, 0.5860258340835571, 0.4270266890525818, -0.750784158706665, -0.09113600105047226, -0.24698108434677124, 0.27632516622543335, -0.32310572266578674, 0.04097864776849747, 0.0559181347489357, 0.06343168020248413, -0.05928509309887886, 0.184475377202034, 0.3956264853477478, -0.03367622569203377, -0.03895824775099754, 0.3277088701725006, -0.4120637774467468, -0.28340286016464233, -0.31966641545295715, 0.1724388152360916, -0.18983693420886993, 0.30285346508026123, 0.20794297754764557, 0.156017005443573, 0.02603992447257042, 0.36115264892578125, 0.34691122174263, 0.5586127042770386, 0.4987587332725525, 0.10317566245794296, 0.21909210085868835, -0.23996178805828094, -0.7688218355178833, -0.9148631691932678, -0.5216472744941711, -0.028655147179961205, 0.04267563670873642, -0.07562221586704254, -0.4769582152366638, -0.11450027674436569, 0.16906046867370605, -0.3802197277545929, 0.007622973993420601, -0.31845101714134216, -0.3006120026111603, -0.5156381726264954, -0.23974943161010742, -0.39125481247901917, -0.4017447531223297, 0.1509823501110077, -0.01752471551299095, -0.5173185467720032, -0.3122798800468445, -0.019234908744692802, 0.07950093597173691, 0.19361619651317596, -0.2821590006351471, -0.3847183287143707, 0.026218777522444725, -0.0398654080927372, -0.01920882798731327, -0.4111733138561249, -0.6839206218719482, -0.5970750451087952, -0.06151009351015091, -0.027816375717520714, 0.5965930819511414, 0.5342457890510559, 0.48669299483299255, 0.2388058453798294, 0.3815232217311859, -0.07946557551622391, -0.31544315814971924, -0.4544003903865814, -0.1704448163509369, -0.12751352787017822, 0.07267448306083679, -0.26341843605041504, -0.47289687395095825, -0.4992740750312805, -0.46580255031585693, -0.29624930024147034, 0.022762222215533257, 0.11039314419031143, -0.27844980359077454, 0.22621594369411469, 0.6671915650367737, 0.1466166377067566, -0.419892281293869, -0.5922840237617493, -0.9802963137626648, -0.3758985102176666, -0.0013631075853481889, 0.5819586515426636, 0.3347863256931305, 0.798166811466217, 0.13112089037895203, 0.24521228671073914, 0.19922852516174316, 0.12765686213970184, 0.21606464684009552, -0.053360555320978165, 0.27069878578186035, 0.4029959738254547, 0.47941452264785767, -0.09902754426002502, -0.23800231516361237, -0.304202139377594, -0.145661860704422, -0.11842726916074753, 0.1797117441892624, 0.32424136996269226, -0.1503705531358719, -0.26980558037757874, 0.16132357716560364, 0.3163033723831177, -0.08505187183618546, 0.2942100167274475, -0.9273771643638611, -0.3236633539199829, 0.4962007403373718, 0.5224876403808594, 0.8105048537254333, 0.9769949316978455, -0.33048999309539795, -0.2054901123046875, 0.024437453597784042, 0.17113356292247772, 0.12156371027231216, 0.47752493619918823, 0.3126123249530792, 0.16312094032764435, 0.1495089828968048, 0.02792813628911972, 0.23842753469944, -0.011571699753403664, 0.1421816349029541, 0.08304492384195328, 0.2901745140552521, -0.009423588402569294, 0.19492438435554504, 0.011146720498800278, -0.010604696348309517, 0.6223627924919128, 0.591641902923584, 0.5043267011642456, -0.06413567811250687, -0.37788647413253784, 0.2705647051334381, 1.2462414503097534, 0.26537615060806274, 0.35433733463287354, 0.05689671263098717, 0.11677294969558716, 0.14696376025676727, -0.1145033985376358, 0.019578967243433, 0.6668030619621277, 0.3682597279548645, 0.038890376687049866, 0.14518219232559204, 0.4642379581928253, 0.1889166384935379, 0.1834641844034195, 0.09996751695871353, 0.4627780616283417, 0.47837066650390625, 0.44283175468444824, 0.05439884215593338, 0.39388540387153625, 0.4691384434700012, 0.34615254402160645, 0.8175861835479736, -0.2289416342973709, -0.6882084012031555, 0.5439825057983398, 0.320951908826828, 1.0903254747390747, 0.6133134961128235, 1.05160653591156, 0.4544169008731842, 0.5187196731567383, 0.18313749134540558, -0.0264145378023386, -0.08102218806743622, 0.11050337553024292, 0.1492597609758377, 0.4870400130748749, 0.40296900272369385, 0.31780433654785156, -0.07972237467765808, -0.4133342504501343, -0.09089575707912445, 0.4694772958755493, 0.41045883297920227, 0.27807196974754333, 0.12810662388801575, 0.42486855387687683, 0.059036415070295334, 0.3920988440513611, 0.690682053565979, -0.3640664517879486, -0.2667792737483978, 0.3458193838596344, 0.38457274436950684, 0.7706894874572754, 0.09863113611936569, 0.3419632315635681, 0.5403604507446289, -0.20336322486400604, 0.3860208988189697, 0.10159522294998169, -0.3060902953147888, 0.227554589509964, 0.31499814987182617, 0.6034314632415771, 0.05757567286491394, -0.423164427280426, -1.1364436149597168, -1.1583929061889648, -0.6410216093063354, 0.04164818674325943, 0.24347177147865295, 0.13764342665672302, 0.28395089507102966, 0.38342341780662537, 0.002867403207346797, -0.11292374134063721, 0.6329917311668396, -0.37506815791130066, -0.17422842979431152, 0.22573308646678925, 0.24946914613246918, 1.262248158454895, 0.05332696810364723, -0.15599730610847473, 0.22557216882705688, -0.12572969496250153, 0.09434956312179565, -0.08647570013999939, -0.12610673904418945, 0.2659837603569031, 0.2282254844903946, 0.3992561101913452, 0.23845621943473816, -0.634108304977417, -2.0237209796905518, -1.5741572380065918, -0.2228417694568634, 0.20464810729026794, 0.15521542727947235, -0.03620347008109093, 0.260931134223938, -0.016168028116226196, 0.35633769631385803, 0.215256929397583, 0.8805364370346069, 0.10041169822216034, 0.0446714386343956, 0.3653612434864044, -0.09894163906574249, 1.2920794486999512, 0.006985190324485302, -0.18144412338733673, -0.25690609216690063, 0.2541489601135254, 0.03001992590725422, 0.11100882291793823, 0.15770511329174042, 0.27999332547187805, 0.4124786853790283, 0.41604968905448914, 0.1263791173696518, -1.2990385293960571, -2.2300703525543213, -1.396420955657959, -0.4138558804988861, -0.13274085521697998, -0.331005334854126, -0.3667221963405609, -0.3006247580051422, 0.06300222873687744, 0.1548786461353302, 0.7481669783592224, 0.5657498836517334, -0.1921490877866745, -0.059881411492824554, -0.18545733392238617, 0.21923473477363586, 0.6340082287788391, 0.7911654114723206, -0.3004419803619385, -0.28230515122413635, 0.3400662839412689, -0.07169254124164581, -0.012164510786533356, 0.05125584080815315, 0.10987746715545654, 0.21957123279571533, 0.03374198451638222, -0.3782009184360504, -1.5126330852508545, -1.3110982179641724, -0.347210168838501, -0.49161866307258606, -0.43066224455833435, -0.44461750984191895, -0.521376371383667, -0.40749916434288025, -0.22593504190444946, 0.026111535727977753, 0.6712766885757446, 0.7550625205039978, -0.11133832484483719, -0.17056913673877716, -0.07872733473777771, 0.43453672528266907, -0.2964058220386505, 0.15215688943862915, -0.4144513010978699, 0.18074403703212738, 0.3016152083873749, 0.04761749878525734, 0.27285870909690857, 0.06208008900284767, 0.2711644470691681, 0.23497462272644043, -0.6904029846191406, -1.465584635734558, -1.7430446147918701, -0.7806571125984192, -0.02384939044713974, -0.2998039424419403, -0.4400891065597534, -0.16326630115509033, -0.2722720503807068, -0.10074619948863983, -0.05298995226621628, -0.18302446603775024, 0.11650927364826202, -0.14902178943157196, 0.03182007744908333, -0.6781849265098572, -0.15753163397312164, 0.5026001334190369, -0.30861398577690125, -0.00364353833720088, -0.5138700604438782, 0.47754961252212524, 0.08932197093963623, 0.13096967339515686, 0.22071970999240875, 0.066423200070858, 0.23231855034828186, -0.11765383183956146, -1.0890847444534302, -1.9823006391525269, -1.6653705835342407, -0.27200958132743835, -0.0907302275300026, -0.3391900658607483, -0.30529311299324036, -0.35853615403175354, -0.2197856903076172, -0.24324853718280792, -0.026065602898597717, -0.15968018770217896, 0.009684513323009014, -0.44444507360458374, -0.22510389983654022, -1.107849359512329, -0.051126621663570404, 0.007259875535964966, -0.18478131294250488, -0.5494275093078613, -0.26541462540626526, -0.03275947645306587, 0.05666423961520195, -0.30107200145721436, -0.314742773771286, -0.2505342960357666, 0.12627153098583221, 0.013950077816843987, -0.9031181335449219, -1.8347455263137817, -1.1234686374664307, -0.07126870006322861, -0.37258365750312805, -0.3261789083480835, -0.37933802604675293, -0.1535990685224533, -0.35363641381263733, -0.10207435488700867, 0.1391763687133789, 0.43531766533851624, 0.23854227364063263, 0.0062567139975726604, -0.04270585998892784, -0.8847212195396423, -0.55938321352005, 0.504623532295227, -0.0555436797440052, -0.5538676381111145, -0.4221216142177582, -0.5818504095077515, -0.11917630583047867, -0.1276097446680069, -0.06359970569610596, -0.4060540199279785, 0.09778736531734467, 0.15270662307739258, -0.9557527899742126, -1.2568694353103638, -0.6283314824104309, 0.022273525595664978, -0.4027063548564911, -0.3884448707103729, -0.12126946449279785, 0.29422318935394287, 0.2304704189300537, 0.6009026765823364, 0.49361804127693176, 0.4567360579967499, 0.34897902607917786, -0.015736304223537445, -0.0314168743789196, -0.7812882661819458, -0.6337829232215881, -0.06199941784143448, 0.6007271409034729, 0.5495514869689941, -0.36265403032302856, -0.49136513471603394, -0.3077824115753174, 0.6125416159629822, 0.08675219118595123, -0.3324022889137268, -0.07613544166088104, -0.281313419342041, -0.9568520188331604, -0.813237726688385, -0.8079118728637695, -0.42899763584136963, -0.2613050639629364, -0.3406752943992615, 0.381584107875824, 0.054560817778110504, 0.04882229119539261, 0.3444743752479553, 0.17782357335090637, -0.06366592645645142, 0.12453227490186691, -0.06701439619064331, 0.10222411155700684, -0.6154871582984924, 0.04751335456967354, -0.07107704877853394, 0.1544530987739563, 0.26045072078704834, -0.15531742572784424, -0.2740005552768707, 0.3684225082397461, 0.03784880414605141, -0.24861633777618408, -0.19649608433246613, -0.04119811952114105, 0.020328640937805176, -0.05642547830939293, -0.08052010089159012, -0.11532297730445862, 0.010873185470700264, -0.175443634390831, -0.34090885519981384, -0.17919503152370453, -0.3319110870361328, -0.3831501305103302, -0.2422114610671997, -0.2880094647407532, 0.15444190800189972, -0.11511624604463577, -0.5594174265861511, -0.9075802564620972, -0.5681167840957642, 0.24411657452583313, -0.03868621960282326, -0.326052188873291, 0.4245942234992981, 0.10933960974216461, 0.21371270716190338, 0.42443668842315674, -0.10750871151685715, -0.017900723963975906, -0.12290224432945251, -0.1690123975276947, 0.3930274248123169, 0.5786718130111694, 0.2894216775894165, 0.07365255057811737, -0.16244854032993317, -0.018252350389957428, 0.13946343958377838, -0.18359290063381195, -0.27673521637916565, -0.332695871591568, 0.07425116002559662, 0.36679789423942566, 0.23716412484645844, -0.3952675461769104, 0.35310932993888855, -0.556463897228241, -0.03271206095814705, 0.43878883123397827, -0.08345671743154526, -0.06055052950978279, 0.18458318710327148, 0.4244559109210968, -0.3437977135181427, 0.2811076045036316, 0.01398460753262043, -0.3512604236602783, 0.08415107429027557, 0.37660759687423706, 0.0543685182929039, -0.026985812932252884, 0.0641423687338829, 0.5181028246879578, 0.09371934086084366, 0.033024854958057404, 0.09001527726650238, 0.12348132580518723, 0.13230453431606293, 0.215522900223732, 0.13138516247272491, 0.08290402591228485, -0.5447965860366821, -0.44316306710243225, -0.5327140688896179, -0.21443547308444977, 0.2548779249191284, 0.355421781539917, -0.002863556146621704, 0.048457421362400055, -0.40854281187057495, -0.22684411704540253, -0.563244640827179, -0.2479439526796341, -0.3645815849304199, -0.5445709824562073, -0.2702838182449341, 0.2687889635562897, 0.38798850774765015, 0.30025339126586914, 0.06834901869297028, 0.25858256220817566, 0.3234800696372986, 0.2873724699020386, 0.26161032915115356, 0.14549291133880615, -0.2677439749240875, -0.15009576082229614, -0.3111818730831146, -0.6514899730682373, -0.45269036293029785, -0.45361873507499695, -0.6348991990089417, -0.36967211961746216, -0.2862165570259094, -0.03978352248668671, 0.08368729799985886, 0.04115826636552811, 0.3063789904117584, -0.15180230140686035, -0.7070282101631165, -0.46144816279411316, -0.4936676621437073, -0.1386880725622177, -0.11788482218980789, -0.11157508939504623, 0.3192995488643646, 0.1671568751335144, 0.1572701632976532, 0.07819345593452454, -0.02222292311489582, -0.1984587013721466, -0.18728134036064148, 0.14720681309700012, -0.1165851578116417, -0.30365851521492004, -0.5362720489501953, -0.23607677221298218, -0.46546226739883423, -0.6806802749633789, -0.3042753338813782, -0.5195608735084534, 0.07766113430261612, 0.05599059909582138, -0.03259234130382538, 0.05145617574453354, -0.522257387638092, 0.4254922568798065, -0.5350115299224854, -0.08359891921281815, -0.3038924038410187, -0.016886601224541664, 0.3551085591316223, 0.4856194853782654, 0.14688324928283691, 0.4632295072078705, 0.18760058283805847, 0.05516047030687332, 0.18754889070987701, -0.1581384837627411, -0.10184594243764877, -0.672822117805481, 0.11898926645517349, 0.16432243585586548, 0.21831968426704407, -0.19734278321266174, -0.2893385887145996, -0.009148629382252693, 0.8946545720100403, 0.11345086246728897, 0.01891191489994526, 0.05736880749464035, 0.016262777149677277, 0.004775553941726685, -0.04085036367177963, -0.013069759123027325, -0.5991327166557312, -0.41805410385131836, -0.2559540271759033, -0.021021008491516113, 0.0810433030128479, -0.13940799236297607, -0.4220786392688751, -0.3894904851913452, -0.2606540024280548, -0.3421603739261627, -0.21703146398067474, -0.0012432007351890206, 0.3473830819129944, 0.042846713215112686, 0.8887935280799866, 0.6032310128211975, -0.06922553479671478, -1.11653470993042, 0.3419349193572998, 0.22571539878845215, -0.44186511635780334, 0.25151896476745605, -0.0498933419585228, -0.004972964525222778, 0.055980585515499115, -0.02558092400431633, -0.041009411215782166, 0.06933955103158951, 0.0681477040052414, 0.5445152521133423, -0.09756991267204285, 0.5054989457130432, 0.34246861934661865, 0.17702125012874603, 0.06385911256074905, -0.5031643509864807, -0.3096959888935089, 0.3034033179283142, -0.03737878426909447, -0.37530317902565, 0.39035969972610474, 1.4657663106918335, 0.4292866885662079, 0.13043397665023804, -0.3797420561313629, -0.41420555114746094, -0.035603005439043045, 0.5649477243423462, 0.027949631214141846, 0.02040955424308777, -0.0661635473370552, -0.06295213848352432], [-0.010091356933116913, -0.029670879244804382, -0.05633646994829178, 0.07679424434900284, 0.0820402130484581, -0.07653265446424484, -0.07269913703203201, 0.07717897742986679, -0.0321972630918026, -0.06891942024230957, 0.007894977927207947, -0.011868603527545929, 0.05531170591711998, 0.051558658480644226, 0.15423451364040375, 0.03289901465177536, 0.05704399198293686, -0.010470159351825714, -0.07478692382574081, -0.05635147541761398, -0.06442543864250183, 0.07253437489271164, -0.048367928713560104, -0.04183102771639824, 0.04431789368391037, 0.014368914067745209, 0.030986115336418152, -0.027593016624450684, 0.014741718769073486, -0.03850967437028885, 0.0834815725684166, -0.006001397967338562, 0.051004014909267426, -0.011505135335028172, 0.16661189496517181, 0.0388607457280159, 0.12255951762199402, -0.1050771176815033, -0.7183389067649841, 0.05703726410865784, 0.18917447328567505, 0.27172213792800903, -0.302387535572052, 0.3747226893901825, 0.5841166973114014, 0.4495158791542053, -0.048542480915784836, -0.2073703408241272, -0.16301335394382477, -0.39109352231025696, 0.1058458685874939, 0.37134552001953125, 0.013488508760929108, -0.08036457002162933, 0.012605272233486176, -0.015124745666980743, -0.02072412520647049, -0.08439109474420547, -0.048361338675022125, 0.44527536630630493, 0.46977126598358154, -0.48293963074684143, -0.036592815071344376, 0.44750455021858215, -0.560958743095398, -1.0766123533248901, -0.44322100281715393, -0.5586298108100891, -0.5103934407234192, -0.4385172128677368, -0.390212744474411, -0.2059721201658249, -0.021561285480856895, -0.3787972629070282, -0.07597428560256958, -0.5144721269607544, -0.32805052399635315, -1.6143932342529297, -0.8305433392524719, -0.24967770278453827, -0.3730274736881256, -0.06653424352407455, 0.06804201751947403, 0.05939852446317673, -0.02661079540848732, -0.054541680961847305, 0.13630713522434235, 0.30485135316848755, 0.14637871086597443, -0.2315400391817093, -0.22148732841014862, 0.27620813250541687, 0.24996733665466309, -0.33455562591552734, -0.044573139399290085, -0.09631498157978058, 0.1420709192752838, 0.180927112698555, 0.2443826049566269, 0.11966544389724731, 0.3583085834980011, 0.21982844173908234, 0.23845462501049042, 0.0017290666000917554, -0.18888147175312042, -0.23675185441970825, -0.8724680542945862, -0.4675895869731903, 0.23926955461502075, -0.5429527163505554, -0.36697545647621155, 0.039066486060619354, -0.03196366876363754, 0.27433833479881287, 0.3891773223876953, 0.3176993727684021, 0.6638885140419006, 0.006795439403504133, -0.2896415591239929, -0.12583006918430328, -0.31569525599479675, -0.4311734735965729, 0.08422307670116425, 0.32206353545188904, -0.1185711920261383, 0.16830672323703766, 0.07366438210010529, 0.4473205506801605, -0.10709414631128311, -0.34635841846466064, -0.23024359345436096, 0.5667145848274231, 0.5689166784286499, 0.20962673425674438, -0.2202003002166748, 0.019445085898041725, -0.37419435381889343, -0.6242542266845703, 0.48487135767936707, -0.35423287749290466, -0.013378545641899109, 0.07610379904508591, -0.5570665597915649, -0.29211437702178955, -0.16343143582344055, 0.021328458562493324, -0.35102736949920654, 0.004791646730154753, 0.2747349739074707, 0.29885226488113403, 0.3405344784259796, 0.36990439891815186, -0.04462229833006859, 0.2663763165473938, -0.25030720233917236, -0.27552661299705505, -0.4005625545978546, 0.21864593029022217, 0.5186330080032349, 0.8645475506782532, 0.9257378578186035, 0.27532896399497986, 0.322431743144989, 0.060943011194467545, -0.06282231956720352, -0.6354644894599915, 0.21410967409610748, -0.678707480430603, -0.012188151478767395, -0.07655345648527145, -0.15531222522258759, -0.17123982310295105, -0.6796324253082275, 0.19911886751651764, -0.15505002439022064, 0.5405361652374268, 0.5248121619224548, 0.14674541354179382, 0.11764103919267654, 0.27139967679977417, 0.2502487003803253, 0.40393543243408203, 0.3864012658596039, 0.39739078283309937, 0.92667555809021, 1.0352144241333008, 1.2166768312454224, 0.6744817495346069, 0.46164700388908386, 0.620418906211853, 0.303964763879776, -0.2748694121837616, -0.3596339523792267, 0.09934228658676147, 0.0012323748087510467, -0.2101372331380844, 0.013234131038188934, 0.46442052721977234, -0.1971888691186905, 0.5011870861053467, -0.4027921259403229, -0.10515208542346954, 0.10471922904253006, 0.0598398819565773, -0.26058799028396606, 0.04691252484917641, 0.07704519480466843, 0.24852469563484192, 0.43730857968330383, 0.2767026722431183, 0.5518370270729065, 0.7718997597694397, 1.1420806646347046, 0.9762460589408875, 0.9442651867866516, 0.08471615612506866, 0.23501308262348175, 0.40858420729637146, 0.22835221886634827, 0.2940002679824829, 0.07684015482664108, 0.19721710681915283, -0.1773945838212967, 0.2860569357872009, 0.22863292694091797, -0.06010197848081589, 0.07124555110931396, 0.7925494313240051, 0.06863716244697571, 0.2705063223838806, -0.1349852830171585, -0.4415857493877411, -0.07279548048973083, -0.004489029757678509, 0.025232283398509026, 0.469415545463562, 0.43162307143211365, 0.35442405939102173, 0.6012489795684814, 0.5791676640510559, 1.1798663139343262, 0.762881875038147, 0.7514989972114563, 0.2500211298465729, 0.2956392765045166, 0.2218831479549408, 0.3240911364555359, 0.5923706293106079, 0.12843991816043854, -0.07257288694381714, -0.20879513025283813, 0.12819837033748627, -0.06927627325057983, 0.593906819820404, -0.22485052049160004, 0.5655699372291565, 0.14434115588665009, 0.0451757088303566, -0.22006575763225555, -0.17989355325698853, -0.07563285529613495, 0.1682957261800766, 0.46261149644851685, 0.3047504127025604, 0.046197015792131424, 0.3040894865989685, 0.32067030668258667, 0.6283432841300964, 0.571249783039093, 0.49706003069877625, 0.20086577534675598, 0.057329483330249786, -0.022372547537088394, -0.04907219484448433, 0.19818279147148132, -0.028220199048519135, 0.7622988820075989, 0.014268891885876656, 0.08950989693403244, 0.3707297146320343, -0.06198907643556595, 0.1741703301668167, 0.22570809721946716, 0.40477633476257324, -0.2524360716342926, -0.06767092645168304, 0.10951755940914154, 0.4316968321800232, 0.017570508643984795, 0.18494655191898346, 0.07196985185146332, -0.051783327013254166, -0.008894852362573147, 0.44153404235839844, 0.5934048295021057, 0.4962020516395569, 0.2083415538072586, -0.0332290455698967, -0.19293469190597534, -0.06221197172999382, 0.18200042843818665, 0.23681557178497314, -0.10943657904863358, 0.29575979709625244, -0.04913893714547157, 0.45519647002220154, 0.8280755281448364, 0.43962040543556213, 0.1185506209731102, 0.10059665888547897, 0.25114771723747253, 0.17273232340812683, 0.02805652655661106, -0.5337844491004944, -0.07783466577529907, 0.107405886054039, -0.11755041033029556, -0.047952473163604736, -0.04734202101826668, -0.07673612236976624, -0.069961778819561, 0.9181053042411804, 0.9581575393676758, 0.5968675017356873, -0.2861219048500061, 0.010994783602654934, -0.11552554368972778, -0.15122383832931519, -0.08479421585798264, -0.18900872766971588, 0.17900343239307404, 0.4346477687358856, 0.3535228669643402, -0.08716540038585663, 0.46945321559906006, 0.5568188428878784, 0.146705761551857, 0.18373660743236542, 0.20874439179897308, -0.5414449572563171, -0.3479282557964325, -0.5722217559814453, -0.3300977349281311, -0.10689570009708405, -0.07423241436481476, -0.09014195948839188, -0.41049155592918396, -0.48145976662635803, -0.2317599356174469, 0.5820984840393066, 0.8841990232467651, 0.09858901798725128, -0.2587699294090271, -0.28704333305358887, -0.18189004063606262, -0.05020314082503319, -0.03554229065775871, -0.2028050571680069, -0.16398629546165466, 0.42346587777137756, -0.16718819737434387, -0.22836299240589142, 0.4192015528678894, 0.484831303358078, 0.0231742262840271, 0.01502193883061409, 0.3904958963394165, -0.5788778066635132, -0.2026039958000183, -0.38841304183006287, -0.4283016622066498, -0.4000881016254425, -0.4658275544643402, -0.37976720929145813, -0.35984551906585693, -0.7047682404518127, -0.37564805150032043, -0.11264587193727493, 0.09597538411617279, -0.17437630891799927, -0.20471583306789398, -0.07184533029794693, -0.3482709527015686, 0.11646710336208344, -0.15620557963848114, -0.08963834494352341, -0.34856724739074707, 0.01915193907916546, -0.7612681984901428, -0.7577635645866394, -0.5373985171318054, -0.4929371476173401, -0.29716089367866516, 0.2734057605266571, 0.5710048675537109, -0.22373227775096893, -0.06436683237552643, -0.19673097133636475, -0.2350410521030426, -0.39788684248924255, -0.5251870155334473, -0.25993239879608154, -0.11166329681873322, -0.435692697763443, -0.10555841773748398, 0.08181034028530121, -0.08564388751983643, -0.12174208462238312, -0.45083707571029663, -0.3981836140155792, -0.11775561422109604, -0.13111965358257294, -0.1735016405582428, 0.08393030613660812, -0.5498605966567993, -0.11736287921667099, 0.12178889662027359, -0.36960920691490173, -0.5067650079727173, -0.6575552225112915, -0.1355925351381302, 0.4102402627468109, -0.44488632678985596, -0.08259814977645874, 0.4306751787662506, 0.12378690391778946, 0.04396899417042732, -0.42756834626197815, -0.40597280859947205, -0.1063278391957283, -0.031396955251693726, 0.20468568801879883, 0.2401726245880127, -0.08369111269712448, -0.4207330048084259, -0.4224454462528229, -0.868503212928772, -0.3099593222141266, 0.009740129113197327, -0.21778903901576996, 0.09850934147834778, -0.20687365531921387, -0.2947579622268677, 0.19011233747005463, 0.11993982642889023, -0.05393246188759804, -0.7364633679389954, -0.4503363072872162, 0.4531984031200409, 0.5320156216621399, -0.2328871190547943, 0.04127230495214462, 0.20633035898208618, 0.04535183683037758, -0.16681219637393951, -0.3038182854652405, -0.3020972013473511, 0.11511055380105972, 0.11637378484010696, 0.263261616230011, 0.23123280704021454, -0.3034786880016327, -0.5883726477622986, -0.8613513708114624, -0.6468679308891296, -0.5951184034347534, -0.36346980929374695, -0.08878272771835327, -0.057626668363809586, -0.20141521096229553, -0.20425458252429962, -0.25901123881340027, -0.09256903827190399, -0.6089794635772705, -1.010737657546997, 0.21184851229190826, 0.07386838644742966, 0.5295870304107666, -0.2536633312702179, 0.2977781295776367, -0.33605068922042847, 0.19085900485515594, -0.23956291377544403, -0.26674604415893555, -0.4724944531917572, -0.0025514408480376005, 0.2411736100912094, 0.1157875508069992, 0.2982361316680908, -0.3710958659648895, -0.5196638703346252, -0.3567967414855957, -0.26148948073387146, -0.4495180547237396, -0.49810877442359924, -0.19457411766052246, -0.415682315826416, -0.42689844965934753, 0.22785988450050354, 0.014750057831406593, -0.04765476658940315, 0.43775272369384766, -0.020976275205612183, 0.17113658785820007, 0.3660750985145569, 0.4537844955921173, 0.07324451953172684, -0.13308221101760864, -0.4632822871208191, -0.3294948935508728, -0.11994046717882156, 0.0013848707312718034, 0.09028012305498123, 0.43628132343292236, 0.7229183912277222, 0.5851060152053833, 0.4847588539123535, -0.10957103967666626, 0.10442301630973816, 0.008282512426376343, -0.18743115663528442, -0.3919229805469513, -0.24346084892749786, -0.16971196234226227, -0.4583567976951599, -0.1595446765422821, 0.27705663442611694, -0.40174004435539246, -0.5363366603851318, 0.10981614142656326, 0.3797627091407776, -0.6597825884819031, -0.039299800992012024, 0.5632008910179138, -0.08216038346290588, -0.477042019367218, -0.47677719593048096, -0.2558557689189911, 0.1327323019504547, 0.11241911351680756, 0.48452064394950867, 0.5797991156578064, 0.48176369071006775, 0.1210007593035698, 0.5556259155273438, -0.13858765363693237, 0.14957112073898315, -0.12928961217403412, -0.10923883318901062, -0.3280247747898102, -0.4459780752658844, 0.05272795259952545, -0.21054992079734802, 0.17227643728256226, -0.04874776676297188, -0.38410571217536926, -0.24527224898338318, 0.466571569442749, -1.7694189548492432, -0.057057373225688934, 0.07036275416612625, 0.317862331867218, -0.4629400670528412, -0.4246475398540497, -0.12324255704879761, 0.15968915820121765, 0.4571800231933594, 0.2231237143278122, 0.5799195170402527, 0.5014919638633728, 0.2909490466117859, -0.06477033346891403, -0.43665412068367004, -0.11532669514417648, 0.0029648514464497566, -0.18556515872478485, -0.16537222266197205, -0.09244558960199356, -0.18580803275108337, -0.04690691828727722, -0.18104487657546997, 0.02013661339879036, 0.2453356683254242, -0.5876525640487671, -0.045114245265722275, -0.18052607774734497, -0.7296783328056335, 0.2970391809940338, 0.01802283525466919, -0.1898478865623474, 0.2820744216442108, -0.2988585829734802, 0.3022390902042389, 0.3553408086299896, 0.6104961037635803, 0.6488508582115173, 0.299929678440094, 0.09809570014476776, -0.01875890977680683, -0.20481908321380615, -0.17611421644687653, -0.33769553899765015, -0.04902901500463486, 0.03775257617235184, 0.25144901871681213, 0.03800652176141739, -0.1301034539937973, -0.2885769009590149, -0.21795092523097992, -0.13009658455848694, -0.16954419016838074, -0.8529294729232788, -0.0027679705526679754, -0.25068050622940063, 0.24170701205730438, 0.1535484790802002, 0.05730856955051422, 0.0006820473354309797, -0.3299490213394165, -0.7549101710319519, -0.3492266535758972, 0.022226981818675995, 0.5131779909133911, 0.40617066621780396, 0.12595953047275543, -0.051630403846502304, -0.22084198892116547, -0.15617735683918, 0.11687393486499786, 0.07032623142004013, 0.6797081828117371, 0.5304480195045471, 0.5863014459609985, 0.49831855297088623, 0.032592158764600754, -0.5783265829086304, 0.1585288792848587, -0.348279744386673, -0.5746603608131409, -0.6354562044143677, -0.5665222406387329, 0.1303364783525467, 0.05199238285422325, 0.2839287221431732, -0.07131753861904144, 0.05050959438085556, 0.6421293616294861, 0.19890765845775604, -0.16438408195972443, 0.018040720373392105, 0.48742860555648804, 0.3851310610771179, -0.24370594322681427, -0.4081469178199768, 0.11705100536346436, 0.27719151973724365, 0.42080745100975037, 0.7260215282440186, 0.7793711423873901, 0.661749005317688, 0.4567525088787079, 0.45187222957611084, 0.3122554123401642, -0.019705967977643013, 0.13652409613132477, -0.10594552755355835, 0.06965234130620956, -0.21282035112380981, -0.1010633036494255, -0.22699281573295593, -0.3886321187019348, -0.08578978478908539, 0.06314735859632492, -0.06054021418094635, 0.5655931830406189, 0.8017678260803223, -0.046389468014240265, -0.5410395264625549, 0.32983383536338806, 0.39922893047332764, 0.3642919659614563, 0.22813022136688232, 0.0642307847738266, 0.1267193704843521, 0.2091117650270462, 0.3418971002101898, 0.3050963878631592, 0.3249506652355194, -0.15736941993236542, 0.23757846653461456, 0.19667112827301025, -0.045475512742996216, -0.05881977826356888, -0.3194469213485718, -0.6210795640945435, -0.27425700426101685, -0.3969443738460541, -0.8454545140266418, 0.094096839427948, -0.0017012283205986023, 0.07583137601613998, -0.05462497100234032, 0.29208824038505554, 0.07067536562681198, -0.9572150707244873, -0.09036372601985931, 0.18382109701633453, -0.098985955119133, 0.27767446637153625, 0.5888858437538147, 0.08908604830503464, 0.10316374152898788, 0.7266895174980164, 0.6479367017745972, 0.5469658970832825, 0.056979477405548096, 0.10193368047475815, 0.48654016852378845, 0.2956107258796692, 0.18056100606918335, 0.06782408058643341, 0.046068400144577026, 0.09844660758972168, 0.054975517094135284, 0.013023962266743183, 0.11942698806524277, -0.38333678245544434, 0.05417633801698685, 0.02312237024307251, -0.0833805650472641, 0.013615541160106659, 0.3136521279811859, -0.6073924899101257, -0.4356677532196045, -0.704086422920227, -0.1487462818622589, 0.0010428851237520576, 0.5684921741485596, 1.0299242734909058, 0.8955254554748535, 0.7981239557266235, 0.8337529897689819, 1.0949970483779907, 0.8647223711013794, 1.0589146614074707, 1.0958071947097778, 1.3665565252304077, 0.5881933569908142, 0.2008536010980606, 0.09193544089794159, 0.19565272331237793, 0.36868876218795776, 0.10528767853975296, 0.03692818433046341, 0.04913722723722458, 0.023324526846408844, -0.006293438374996185, 0.01658622920513153, 0.07799942046403885, 0.04576318711042404, -0.007930654101073742, -0.08942533284425735, -0.00028941757045686245, 0.09858407080173492, 0.10037429630756378, -0.34993213415145874, 0.4304187595844269, 0.1146518886089325, -0.37202996015548706, 0.05225605517625809, 0.5081050992012024, -0.158066526055336, 0.4914321005344391, 0.915267825126648, 0.5397666692733765, 0.44547712802886963, -0.5039341449737549, -0.45826929807662964, -0.15567365288734436, -0.2018139511346817, 0.0627196803689003, -0.03290480747818947, -0.07845169305801392, 0.040166549384593964], [0.05957404524087906, -0.04755584895610809, -0.036320850253105164, 0.014519423246383667, 0.008130230009555817, -0.07424428313970566, 0.04463914781808853, -0.00890246033668518, -0.06987584382295609, 0.08437070995569229, 0.07308084517717361, -0.007452778518199921, -0.002341700717806816, 0.046770915389060974, 0.09753793478012085, 0.04035627469420433, 0.0068110451102256775, 0.05637707561254501, -0.061113808304071426, 0.031091630458831787, 0.04205247014760971, 0.06913114339113235, 0.056549184024333954, 0.07973150163888931, 0.02346247434616089, 0.003144681453704834, 0.004344426095485687, -0.0016123652458190918, 0.023663461208343506, -0.042348574846982956, -0.014566585421562195, 0.04541390389204025, 0.06656898558139801, 0.07054952532052994, 0.12622444331645966, -0.006975927855819464, 0.24734275043010712, 0.37290921807289124, 0.5983454585075378, 0.504583477973938, 0.5600005388259888, -0.21466724574565887, -0.6625781059265137, -0.7846932411193848, -0.9374926686286926, -0.5152181386947632, 0.11188803613185883, 0.49052664637565613, 0.7642583250999451, 0.5657564401626587, 0.40889570116996765, 0.3476564884185791, 0.05943738669157028, 0.057238899171352386, -0.019476071000099182, -0.034744568169116974, -0.061378516256809235, 0.0557556077837944, -0.05991450324654579, 0.08196704834699631, 0.12055036425590515, 0.08374864608049393, 0.21454647183418274, 0.45009806752204895, 0.8624090552330017, 0.9659972786903381, 0.1875411868095398, -0.18157532811164856, 0.057635437697172165, 0.283808171749115, 0.004496197681874037, -0.28061407804489136, -0.181501567363739, 0.7867003679275513, 1.3225830793380737, 1.2726393938064575, 1.1496750116348267, 1.6171598434448242, 1.187253713607788, 0.970537006855011, 0.6998149156570435, 0.08477848023176193, -0.004258051514625549, -0.06371727585792542, -0.01607910543680191, -0.0027390196919441223, -0.49538496136665344, -0.4899161159992218, 0.21236899495124817, 0.5098873972892761, 0.9364284873008728, -0.15306596457958221, 0.2089143991470337, 0.016652651131153107, -0.06540267169475555, 0.09509316831827164, -0.15550453960895538, 0.25508028268814087, 0.4335588216781616, 0.35777193307876587, 0.5198429822921753, 0.43261706829071045, 0.14697687327861786, 0.23478896915912628, 0.17127685248851776, 0.6890136003494263, 0.24969367682933807, 0.053150832653045654, 0.8758189082145691, 0.5118755102157593, 0.40991321206092834, -0.010026834905147552, 0.0015427321195602417, 0.03602924570441246, -0.5046088099479675, -0.46324607729911804, 0.18897181749343872, 0.4934788644313812, 0.7452512979507446, 0.5182308554649353, 0.3097308278083801, 0.6717183589935303, 0.9609580039978027, 0.6630737781524658, 0.8158796429634094, 0.32935771346092224, -0.4201257526874542, -0.6870690584182739, -0.5952845215797424, -0.15946830809116364, -0.23744599521160126, -0.25131654739379883, -0.24313287436962128, 0.03343241289258003, 0.32160475850105286, 0.2668505907058716, 0.8233762979507446, 1.1868492364883423, 0.5758253335952759, 0.5559917092323303, -0.058268241584300995, -0.04880206286907196, -0.39707210659980774, -0.7232011556625366, 0.13253368437290192, 0.26253828406333923, 0.16451504826545715, -0.18897250294685364, 0.8733238577842712, 1.0886873006820679, 1.5181328058242798, 1.6672465801239014, 1.57327401638031, 0.7576900124549866, -0.03126869723200798, -0.6066199541091919, -0.1167178526520729, 0.011609301902353764, 0.2403896152973175, 0.20574702322483063, 0.24775204062461853, 0.010989146307110786, -0.19823722541332245, 0.45093414187431335, 0.4736303985118866, 0.7892352938652039, 0.6210196614265442, 0.5371698141098022, -0.06509093940258026, -0.10129938274621964, -0.17438866198062897, 0.22029155492782593, -0.33648577332496643, 0.8956583142280579, 0.5903756618499756, -0.06316661834716797, 0.4002120792865753, 1.2119954824447632, 1.544546365737915, 1.6407283544540405, 1.2386474609375, 0.74654620885849, -0.037178292870521545, 0.49162399768829346, 0.49256688356399536, 0.1572883427143097, 0.2786714434623718, -0.2329447865486145, 0.2449619024991989, -0.14527751505374908, 0.10875968635082245, 0.33325907588005066, 0.3120555579662323, 1.0281709432601929, 0.7999622225761414, 0.6996671557426453, 0.01458241231739521, -0.10677769780158997, -0.2339908927679062, 0.3242058753967285, 0.07722322642803192, 0.735833466053009, 0.8923203945159912, 0.17762534320354462, 0.6395634412765503, 0.8278957009315491, 1.6809152364730835, 1.4923169612884521, 0.8478127121925354, 0.5979548692703247, -0.3174472749233246, 0.453626424074173, 0.1585877686738968, 0.27001965045928955, 0.35480159521102905, -0.16114744544029236, 0.13072501122951508, -0.10781745612621307, 0.11468657106161118, 0.04323827102780342, 0.4678914546966553, 0.6506943702697754, 0.8334498405456543, 0.6416741609573364, 0.30459409952163696, 0.07750017940998077, -0.1377488672733307, -0.4517008364200592, 0.6002028584480286, 0.6372502446174622, 0.2748081088066101, 0.34999287128448486, 0.7228131294250488, 0.650058925151825, 1.5145885944366455, 1.7718886137008667, 1.684910535812378, 0.6221731901168823, -0.20045042037963867, 0.014156404882669449, 0.15658386051654816, 0.0691983625292778, 0.34078335762023926, 0.1836472898721695, 0.2507431209087372, 0.317745178937912, 0.4078812599182129, 0.5766528248786926, 1.1539306640625, 1.2662943601608276, 0.010589752346277237, 0.16881296038627625, 0.023787615820765495, -0.047790467739105225, -0.15856799483299255, -0.2936435639858246, 0.44572579860687256, 0.6784500479698181, 0.7226759195327759, 1.050950288772583, 0.7464690804481506, 1.1282848119735718, 1.2598304748535156, 1.6874576807022095, 1.4945188760757446, 0.1502445489168167, -0.013962824828922749, -0.43845778703689575, -0.4152695834636688, 0.04684434458613396, 0.30316415429115295, 0.450432151556015, 0.5004492402076721, -0.047858305275440216, 0.39391541481018066, 0.4535900950431824, 0.4776078760623932, 0.6329960227012634, -0.36676597595214844, -0.13373428583145142, -0.03986009955406189, -0.33877021074295044, 0.2306455820798874, 0.2363639920949936, -0.07140720635652542, -0.033611588180065155, 0.9048659205436707, 0.5431841611862183, 1.041107177734375, 0.6485401391983032, 0.13168488442897797, 1.0125155448913574, 1.1304163932800293, 0.23123805224895477, -0.29357796907424927, -0.7172182202339172, -0.6846137642860413, -0.5015586614608765, -0.22055569291114807, 0.16553102433681488, 0.07209845632314682, 0.3441084623336792, 0.2942882478237152, 0.954114556312561, 1.591956615447998, 0.2283034473657608, -0.24934692680835724, -0.41458365321159363, 0.029323792085051537, -0.06337959319353104, -0.003889692248776555, -0.05099600926041603, -0.3356654942035675, -0.11769750714302063, -0.23717215657234192, -0.17939434945583344, 0.11183498799800873, 0.03475428745150566, 0.17410841584205627, 1.1339205503463745, 0.8253272771835327, 0.19037730991840363, -0.4305698573589325, -0.8937554955482483, -0.5031397938728333, -0.31647950410842896, -0.8269227147102356, -0.46625131368637085, -0.09472289681434631, -0.04007810354232788, -0.3347802460193634, 0.4191780090332031, 0.5468321442604065, 0.11761157214641571, -0.6580358743667603, -0.6213740706443787, 0.1067594587802887, 0.2836747467517853, -0.2614234387874603, -0.3174949288368225, -0.2757115364074707, 0.14155523478984833, -0.48969554901123047, 0.03606962412595749, 0.5363096594810486, 0.24100977182388306, 0.7217609286308289, 1.250231385231018, 0.4529052972793579, 0.3911096751689911, -0.5001375675201416, -0.455194354057312, -0.48230504989624023, -0.20865774154663086, -0.1935991495847702, 0.24419309198856354, -0.2229340821504593, -0.26818087697029114, -0.40574297308921814, 0.17689059674739838, 0.4667397737503052, -0.0014315081061795354, 0.11051802337169647, -0.4220944344997406, -0.24133393168449402, 0.2208203375339508, -0.40707555413246155, -0.1990618258714676, -0.27066677808761597, 0.5424096584320068, 0.469309538602829, 0.4820491373538971, 0.5977805256843567, 0.9937600493431091, 1.5195112228393555, 0.4642135798931122, 0.5125136971473694, -0.04670015722513199, -0.3587014973163605, -0.09396177530288696, 0.2187451720237732, -0.005721127614378929, 0.4246199429035187, 0.5878333449363708, -0.6527877449989319, -0.6069170832633972, -0.5281178951263428, -0.36863869428634644, 0.08110782504081726, -0.085271917283535, 0.41985660791397095, -0.1308220475912094, 0.055107854306697845, 0.26141226291656494, -0.4459148943424225, -0.49819326400756836, -0.471923828125, 0.6352609992027283, 0.8390817642211914, 1.0769723653793335, 0.5648488402366638, 0.6269122958183289, 0.5731380581855774, -0.046621620655059814, -0.054266735911369324, -0.5651282072067261, -0.7059032917022705, -0.16038967669010162, 0.19097600877285004, 0.518951952457428, 0.18197554349899292, -0.26994144916534424, -0.3159523904323578, -0.6906993389129639, -0.3784318268299103, 0.6195696592330933, 0.500982403755188, -0.1314030885696411, -0.2689325511455536, -0.0015306222485378385, -0.010219506919384003, -0.024541612714529037, -0.535250186920166, -0.22662615776062012, -0.5405459403991699, 0.5609481930732727, 0.5055535435676575, 0.2926025688648224, -0.06826451420783997, -0.20145286619663239, -0.05347651243209839, -0.8442932367324829, -0.46949130296707153, -0.7298815846443176, -0.38940778374671936, 0.05865633115172386, 0.08485515415668488, 0.706190824508667, 0.6089603900909424, 0.7204687595367432, 0.4919825494289398, 0.37875211238861084, -0.09672627598047256, 1.0468460321426392, 0.7442947030067444, -0.07508112490177155, -0.2167719006538391, -0.039560794830322266, -0.060076672583818436, -0.2995333671569824, -0.579006552696228, -0.7514397501945496, -0.20005959272384644, -0.052890677005052567, 0.11587972193956375, 0.17611272633075714, -0.29824382066726685, -0.5356447100639343, -0.3953278362751007, -0.4852546453475952, -0.047977056354284286, -0.575002133846283, -0.4479759633541107, 0.024107342585921288, 0.472089946269989, 1.3286502361297607, 1.1057782173156738, 0.4758147895336151, 0.07215983420610428, 0.05871247500181198, 0.20444698631763458, 0.39901140332221985, 0.08437958359718323, -0.22580614686012268, 0.3874402642250061, -0.2602025866508484, 0.028951585292816162, -0.4647993743419647, -0.9245421290397644, -0.2898614704608917, 0.23116013407707214, 0.5566287040710449, 0.5459824800491333, 0.25065016746520996, 0.10381104797124863, -0.17345218360424042, -0.022461803629994392, -7.387110235868022e-05, -0.22991716861724854, -0.9500071406364441, -0.6593081951141357, 0.37289175391197205, 1.162042260169983, 1.2323887348175049, 0.6042464375495911, 0.06778781861066818, -0.022758956998586655, 0.7866600751876831, 0.002678951248526573, -0.16068992018699646, 0.012413536198437214, -0.6178624629974365, 0.24703454971313477, -0.312612920999527, -0.05345495045185089, -0.3859671354293823, -1.4491938352584839, -0.8905121088027954, 0.6333545446395874, 1.5075132846832275, 1.3650869131088257, 0.5764356851577759, 0.48988038301467896, 0.091408371925354, 0.13167180120944977, 0.05497748404741287, -0.19978128373622894, -0.868920087814331, -0.33258217573165894, 1.014719843864441, 1.3290324211120605, 0.32519686222076416, 0.21256163716316223, -0.2671755850315094, -0.05919244512915611, 0.17819498479366302, -0.37294474244117737, -0.05578139051795006, -0.11113982647657394, -0.682778537273407, -0.16123490035533905, -0.5379951000213623, -0.13673323392868042, -0.060194700956344604, -0.5869120359420776, -0.5994029641151428, -0.39956554770469666, 0.8119611144065857, 0.6854146718978882, 0.24865058064460754, 0.2808990180492401, 0.27392715215682983, 0.23451370000839233, 0.12998302280902863, -0.32120299339294434, -0.7301114797592163, 0.23276624083518982, 0.8138000965118408, 0.7001091241836548, 0.76636803150177, 0.9238596558570862, 0.8552616238594055, 0.7971540093421936, 0.4335460960865021, 0.1592734009027481, 0.010108073242008686, -0.35669025778770447, -0.44722944498062134, -0.29414209723472595, -0.5950894355773926, -0.04855937883257866, 0.07111603766679764, -0.644838273525238, -0.4480832517147064, -0.9322357177734375, -0.1464264839887619, 0.01764039508998394, 0.20059402287006378, -0.13851338624954224, -0.11656256020069122, 0.27721866965293884, -0.06095129996538162, -0.389149934053421, 0.1044585257768631, 0.2902590036392212, 0.48114240169525146, -0.04110631346702576, 0.6194411516189575, 1.057124376296997, 1.0866233110427856, 1.335851788520813, 0.8198106288909912, 0.22413551807403564, -0.07069384306669235, -0.5456572771072388, -0.7717111706733704, -0.33074328303337097, -0.19377778470516205, -0.10859697312116623, -0.3960143029689789, -0.6330981850624084, -0.22094890475273132, -0.3469100892543793, -0.36854052543640137, -0.17554041743278503, 0.025213489308953285, 0.5756502747535706, -0.14287006855010986, 0.16195951402187347, 0.4299541711807251, 0.38695743680000305, 0.34796056151390076, 0.01817832514643669, -0.15122643113136292, 0.057644572108983994, 0.7022109031677246, 0.7839985489845276, 0.6094964146614075, 1.0159852504730225, 0.7744747400283813, 0.2522549331188202, -0.17489735782146454, -0.6332486867904663, -1.036869764328003, -0.5514641404151917, 0.08167547732591629, -0.16286912560462952, -0.26560622453689575, -0.6462540626525879, -0.21207177639007568, 0.24155160784721375, -0.32751110196113586, -0.051417458802461624, 0.10728062689304352, 0.131068155169487, -0.3155917823314667, 0.36272993683815, 0.5276428461074829, 0.782720685005188, 0.12283913791179657, -0.5438808798789978, -0.06465552747249603, 0.3784387707710266, 0.7401483058929443, 0.14774104952812195, 0.4073324203491211, 0.197265163064003, 0.8660224080085754, 0.9918681383132935, -0.0900617465376854, -0.4014151990413666, -0.48502323031425476, -0.5546432137489319, -0.015383337624371052, -0.008778125047683716, -0.033343300223350525, -0.27000129222869873, -0.1730397641658783, 0.8638941049575806, -0.2132881134748459, 0.23583459854125977, 0.155679851770401, -0.35765451192855835, 0.051133234053850174, 0.411415159702301, 0.5963178277015686, 0.23710626363754272, -0.1472037434577942, -0.08764396607875824, -0.006919370032846928, -0.3655082583427429, 0.011957350187003613, -0.20322354137897491, 0.18384626507759094, -0.1424368917942047, 0.06187739968299866, 0.22814686596393585, -0.1689986139535904, -0.5072132349014282, -0.6070616841316223, -0.7459695935249329, 0.03171044588088989, 0.07102049142122269, -0.08349797874689102, 0.016405316069722176, -0.0977795347571373, 0.5589679479598999, 0.4605575203895569, 0.5000010132789612, 0.34123098850250244, -0.07847949862480164, 0.48607176542282104, 0.6650267839431763, 0.6821457743644714, 0.5490313172340393, 0.44424179196357727, 0.26694992184638977, 0.7279524803161621, 0.7609022259712219, 0.0038268431089818478, -0.1697929948568344, -0.15647144615650177, -0.07753704488277435, -0.0046049123629927635, -0.03863048553466797, -0.15272733569145203, 0.6060899496078491, -0.40138885378837585, -0.39955687522888184, -0.025012653321027756, -0.02012341469526291, -0.07935725897550583, 0.026176784187555313, 0.3891049325466156, 0.45554807782173157, 0.2641577422618866, 0.6115078330039978, 0.5862258672714233, 0.11278066784143448, 0.598029375076294, 1.1053189039230347, 1.4139353036880493, 1.0568923950195312, 0.7672984004020691, 0.977746844291687, 1.6366126537322998, 1.2949241399765015, 1.3558300733566284, 1.4600428342819214, 1.0067306756973267, 0.670559823513031, 0.8046291470527649, 0.23336991667747498, 0.5991790294647217, 0.5542634129524231, 0.02879021316766739, -0.08296802639961243, 0.08533894270658493, 0.008749611675739288, 0.011833354830741882, 0.08517751842737198, 0.05100306123495102, -0.22170405089855194, 0.07965264469385147, -0.12244419753551483, 0.19909310340881348, 0.6232438087463379, 1.1081446409225464, 0.5845800638198853, 0.5829815864562988, 1.1425389051437378, 0.9338817000389099, 0.7711350321769714, 0.5847119092941284, 0.6922997236251831, 0.579391360282898, 0.6532285809516907, 0.6489883065223694, -0.2654531002044678, -0.17691928148269653, 0.0553227961063385, -0.005765229929238558, 0.03667508065700531, -0.058686211705207825, 0.01986539363861084, 0.02238498628139496, 0.0011647269129753113, 0.07448344677686691, -0.06638361513614655, 0.02822871506214142, 0.07119499891996384, -0.015658065676689148, -0.10358577966690063, -0.08705542236566544, -0.143408864736557, 0.04388931021094322, -0.6298865079879761, -0.4707052409648895, 0.3193395435810089, 0.08767206966876984, -0.7256895899772644, -0.20236240327358246, -0.1550103724002838, 0.41408950090408325, 0.4289930760860443, 0.2421441525220871, 0.2034144401550293, 0.0006822511786594987, 0.11816263943910599, 0.02192208543419838, -0.019942931830883026, 0.015190452337265015, -0.01033184677362442, 0.0032441243529319763], [0.00471959263086319, 0.06127702444791794, 0.00412297248840332, 0.0836452916264534, 0.08291778713464737, 0.06482993811368942, 0.033628933131694794, 0.01014498621225357, -0.04188207909464836, -0.02473781257867813, 0.03856285661458969, -0.009550206363201141, -0.0912112146615982, 0.01204615831375122, 0.06393390148878098, 0.0697626918554306, -0.030258510261774063, 0.06650231033563614, 0.06411299854516983, -0.07731977850198746, 0.08212868124246597, -0.03780139610171318, -0.04292474687099457, 0.0353110134601593, -0.028098873794078827, -0.032693829387426376, -0.07978999614715576, -0.07600954174995422, -0.03402144834399223, -0.030604135245084763, 0.04549448937177658, 